0.04168289551497977
0.07059295427897921
-0.002394579593074666
-0.041577358939228745
0.021554139467479826
-0.2158748792069
-0.1237125037727729
0.07941123255371793
0.05240637504211156
0.11391117308631481
-0.09728710594353697
-0.029979639258958867
0.08246940954610255
0.10871505843117225
0.042712115352340076
-0.14402663875973126
-0.01626653492472101
0.05181184138584708
-0.015295087813368632
0.04368304289468245
-0.10116558734832475
0.06748738325747625
0.0021807338042572144
-0.06675409825704604
0.010177109717437923
-0.09713948499444677
-0.07715713052194659
-0.10112544560415768
0.030730697967131324
-0.12302853167103223
-0.05728687117736261
-0.0925821293254661
0.1200462845497798
-0.007091381784339935
-0.09860035998158878
-0.011105150361533636
0.07159517830968848
-0.056368506645003785
-0.027880834376667652
-0.04481560433769758
-0.14660580248560157
-0.07328962661817488
0.043412190002134976
0.01587710104786936
-0.12598884120636228
0.033712117008066096
-0.12537955276638432
-0.011887594494033921
-0.08860812921832643
-0.04623386551053121
-0.012725528418858174
0.07362329860355209
0.13630960622546973
0.03607941877404154
-0.050337130270010105
0.09092463851630675
0.09487498317028341
0.061006930005608924
-0.08134205471243659
0.02683361849754789
0.021049977686588388
-0.0733435853493682
0.04253534760787907
-0.023986377990467395
-0.07404046135467407
-0.1621459092680989
-0.14531001863335502
-0.16908007298958072
-0.36584094468557643
-0.15954111032856846
-0.12827688474617663
-0.10214551716279409
-0.225564980869956
-0.19971504874625606
-0.13255384419401467
-0.2821975188553085
-0.06677016805229145
-0.18538924150341685
-0.08808770667299998
-0.07356432154846686
0.04301063315183285
0.037804070216088
0.016748689254797642
0.06486869406442343
-0.0010002606202463525
0.012096344642905802
0.08458519545319586
-0.05130602393815049
-0.0041218646367284645
-0.07747358184912607
-0.10052235543932042
-0.2099545086060112
-0.429665523063253
-0.41268396312221645
-0.3471485908344436
-0.4115731719575567
-0.38063557312147583
-0.33455979083920667
-0.5888588915230489
-0.34433702201799704
-0.254015651685622
-0.2572722596596716
-0.047981246269478556
-0.20682712313440266
-0.08527568822092801
-0.17173455835195692
-0.10363288054816863
-0.038034665827273065
0.1296380086902806
-0.03877676451194341
0.00445553314456064
0.019019699050533554
0.10286122356955606
-0.018522047721997996
0.025865743190699234
-0.027561641730426648
0.10947609797541366
0.06126490868659642
0.019929117329555716
-0.07602912009001218
-0.03814257231121018
-0.39199045644780484
-0.2406790500399403
-0.09916065840206817
-0.176263255482496
-0.08460843991831352
0.06296820799615488
0.01982872445745276
0.031917710324706285
0.009838569340388934
0.26710940392475274
0.10035156023707299
-0.01051651140227558
-0.03804803677039738
-0.11633534043566748
0.07147999321115667
0.210593131848913
0.19279150691292513
0.19475965265646186
0.05446508863529054
-0.05970665059834644
0.011801223919889128
0.02155262957300783
0.14059353209303896
0.11998077196712752
0.06677904737706625
0.11029447427976292
0.11576160471140669
-0.11873244681708366
-0.08220880293650178
-0.2591139989441986
-0.0024783851833307257
0.1020707375220318
-0.09806934856836222
0.05101429585533734
-0.02492188203838799
0.23533436265105742
-0.13857380599685462
0.1706180868104646
-0.06487580902223893
0.0009061630952314552
0.02169091201926674
0.1664648767143899
0.07761213947829691
0.20523351813989452
0.2160690883824155
0.10996496103978493
-0.03902248188940292
0.01703694840011978
-0.10826220772031678
-0.08326430187311551
0.09285247984906873
0.09145615855290726
-0.006943436528589162
0.034469119892833834
0.0025650558978617334
0.023318011529418987
-0.057171075016668044
-0.04051938039546372
-0.00856928362424111
-0.18162419841670663
-0.048273317685401614
-0.20511558412617817
0.010722260799149739
0.07429736554542492
0.0753532300510169
0.09505214180098104
0.10705311298064663
-0.05860546299704285
0.16279914679535315
0.1317347149077596
0.3158547264983252
0.23657501055873942
0.052317912928545506
0.009347628812233007
0.11823326544399175
0.04822675005889639
-0.12812105177734434
-0.027561110590898878
0.07893620722562879
0.13112437191007498
0.0009090265957842459
-0.13253559841339727
-0.0684995271548685
0.006435181976341155
0.11291844209818491
0.11427837379692979
-0.033905467974147806
0.01340576761166598
0.05930755763102726
-0.03973254338403682
-0.1523270212132456
-0.04028644602083426
-0.11397651980574393
0.02588294507331775
0.19191917289877578
0.22069883599694634
0.2826453983485804
0.05955425011441319
0.23721658779633625
0.009486185218378138
0.16746853699200676
0.08344930555860514
0.09547336921830708
-0.09834820609999052
0.09098205980865455
-0.001314167364898606
0.1262606298364878
0.2588382162997189
-0.058977691146041955
0.11134132596551044
0.15803104478521035
0.02433685502015095
0.18797217665570193
0.207668401245564
0.12183731555040071
0.14678758118786264
0.087211865351454
-0.21007793617210815
-0.29713698618789713
-0.08447724311764214
-0.04196733310929085
0.3202937966186941
0.2465091282958338
0.1451282316430745
0.11839114689356244
0.3374658939073552
0.22774151643249424
0.21354560187112048
0.24319152627718948
0.09791667756917248
-0.06217694382661779
-0.07575206517506085
-0.06580859027353056
0.08057772296024152
0.04803822691338148
0.18834187912554265
0.04480882563381625
0.18774740146414698
0.18284881424322444
0.1663669759750579
0.283762830041389
0.03837387144131331
0.09876189371388211
0.0874774136030183
-0.12323441322588476
-0.25163300334511063
-0.18918682591633573
0.2704193571790462
0.4636995465838194
0.4923229032177908
0.45721811028183434
0.2447924782906451
0.1606664333406701
0.32170642656812803
0.12507966307070245
0.3133694120426344
0.24235998682689508
0.05567083281321704
-0.024447306146970958
0.007713280933772548
-0.07474619619910457
0.11264640188515652
0.12776049150306382
0.1434182017126162
0.07461492738893984
0.20900228359323816
0.19509640040330486
0.075362927891996
0.1903510696126808
0.18703716444471372
0.1170293187294921
-0.042528280420591355
-0.11191780791405836
-0.15719441907588472
0.19851718479935979
0.3693641111642801
0.3594017516317181
0.37147673839101997
0.3684297373214099
0.03596638839579545
0.17346753047484278
0.008814780480635763
0.07877250436780073
0.20955273531810986
0.23416146664621473
0.04706104311427674
-0.003017224635204715
0.0463309185409265
-0.050527491042721584
0.04330280704909295
0.1031588855971881
0.09687831778436568
0.14202090928082126
0.12154206225120301
0.036555956759097785
-0.08104909840749669
0.133394205135552
-0.006863122845203633
-0.12950734060191288
-0.07465671989631914
0.040274528643295913
0.29498358097960414
0.38330912342929013
0.06781116638991831
0.41470648512725167
0.14559627586184157
0.08622474371958733
0.1551472692852904
-0.18521443309686889
-0.012571213434285035
-0.04986913115646895
0.11936946634078059
0.27808836242216384
0.0528282699650841
0.048035326276148135
0.10323862064231161
0.07783628649977029
-0.09915006141897142
0.07224729915595544
0.3158960307944343
-0.030257587089762245
0.006222015303610301
0.001570407332696991
-0.049679492838425696
-0.018921601968394396
-0.07219267213434648
-0.20993107208422904
-0.061272623784536726
0.1701369769397467
0.3964150041598883
0.10643862756281623
0.09550111124252574
0.16242348700268908
0.15343562782846779
0.27504387014780446
0.12370586345022842
-0.03880768930959746
-0.04733707551029725
-0.2141936445425336
-0.16965946943271562
0.18765967438538247
0.046029645875534195
-0.012051358865446893
0.06972326212506103
-0.07095235301137565
0.023452343877158843
-0.016541859297464625
0.28943344705857865
0.059664347005973145
0.024091449290720306
0.02511258973380046
-0.13713735249514775
-0.09562744993459643
-0.2565628057561214
0.10403606108614064
0.17348142460735244
0.2568867673776614
0.3213346099768343
0.35356205409449176
0.3041620706627631
0.24533521283533102
0.3656649418449175
0.13559064018058675
0.4304356361534117
0.03810671564332902
-0.35212933987976913
-0.5446156515129689
-0.3543914031483401
0.1049864980580215
0.22378730499723237
-0.008627542988176437
-0.07942916063348411
0.09000075443379302
0.025623099705457123
0.04487886325299244
0.26031500297596544
-0.07238544413672378
-0.050899337665268
-0.21312249109284404
-0.36134257886027604
0.059979437846810986
-0.39140229852560743
-0.21931623163257485
0.12850698928017606
0.1425324649063034
0.3149048872941921
0.09852673188551989
0.27659779262366996
0.45941156525207427
0.2108337979376104
0.16697899500745586
0.0017793349097624707
-0.08567620817255481
-0.2814865780956889
-0.5609756521366902
-0.40409047924798447
-0.022218794958522824
0.07974491187342449
-0.18649909160573439
0.037264850564157834
0.14739897638082314
0.05819800909767608
0.11153793520537977
0.06535501944048021
-0.05550800914915756
0.09305343056111977
-0.2887634703330202
-0.10146449946419812
-0.1945709289082722
-0.12293543619284752
-0.02056811666828136
0.09787230394645985
0.38836022595240305
0.1715515258407083
0.2983542866011558
0.2188558891930378
0.21789420015251523
0.09009316353318748
0.07548691724127968
-0.20902711381202116
-0.153410768508303
-0.2164182448831176
-0.4298666091083893
-0.2558604989382983
0.05546570035981972
-0.01090522249244035
0.04292789389043559
-0.051676282672073144
-0.0035321182443758584
0.026205827974569836
0.03765256348911684
-0.11335247956286301
0.004704829759373658
0.06623515058321865
-0.011897346039732156
-0.08431868631400288
-0.1307146646476593
-0.2157951293291706
-0.3316898594237363
0.460821400584099
0.18731924399207583
0.026434391889972878
0.3953183178307301
0.3834995464815411
0.22015188617900566
-0.0668115984142528
-0.36169980342562325
-0.3833416932072665
-0.17695400912792097
-0.13243688815740182
-0.30195325568264225
-0.19751817139524913
-0.07430177012483716
0.04784672061017855
-0.019921369851727735
-0.026144330611284072
0.058171837573444386
-0.025664077500989656
0.088616478426494
0.0974032671634105
-0.03955327090266628
0.15760969359666716
0.19131432373735768
-0.043657108491431076
-0.02149343151269031
-0.41717228969947096
-0.19029437689597803
0.2914948921209408
0.34010359979508004
0.23304223327961213
0.2502102354001052
0.018544928139464793
-0.08984535292665294
-0.27558806700761973
-0.2156794778348895
-0.23207219199664716
0.0980200435335685
-0.1566253392211316
-0.09849841134685178
0.0376824176239509
-0.05805996700936326
0.14492081967292303
-0.0240905213672126
0.02596292721488912
-0.035759953329036163
-0.07073851776571
0.10765526341873799
0.17345171070196336
0.20818718307160242
0.1869668292329722
0.043910851582170146
-0.08902305953621881
-0.02345973649718692
0.03497352252159215
0.1625179849016575
-0.020717532715669736
0.25308923457687954
0.13450004501702176
-0.07748634316326797
-0.2882689168566026
-0.33051241442876017
-0.2939081117502411
0.05127870671556619
-0.050771004254608766
-0.13358812203565631
0.041442928534457725
-0.04543960853256801
-0.13608058074620372
-0.047819102335458344
0.09935269641630916
-0.024716613248266763
0.05954318830677739
0.01567203835899524
0.1572673999645112
0.08395746096502156
0.16946794963184272
0.21869059225674856
0.05083980198363147
-0.0025499495976278866
-0.0014376840055719694
0.08476216190914368
0.05781921897464313
-0.1892287105288675
-0.5099812298132966
0.023008220889169956
-0.2775209694468651
-0.3144406951007068
-0.1258795783958552
-0.1898257769467775
-0.003908862456163024
0.04186490304314556
-0.09835632505018015
-0.07452394090459509
0.05090466325794709
0.13259001214428737
-0.09929070203397368
0.09506591566931398
-0.0035033670697830837
-0.05985556197243483
0.005035956289850342
-0.08752917066559851
-0.008424042383254875
0.1874257627338337
0.03142094804143547
0.04942076480845655
0.03584813776592113
-0.08349849451972573
-0.01398412116944182
-0.1417670671091836
-0.018393584339958628
-0.1546455008873028
-0.24566141203163458
-0.12213692501716408
-0.23713106039917614
-0.2965126612005653
-0.20084570745032054
0.06643222914761544
-0.03841422103579005
-0.0938905723299218
-0.04546055648330503
0.05638866889326542
0.033377231771924885
-0.07875197400466451
-0.09759892304010867
0.02562887558584968
0.046802489586891746
0.05463079025418077
0.05054619405408471
-0.03943512223916797
0.10642669745649809
-0.01820267183168122
0.018184132037834082
0.05473816036407344
0.09285059399177033
-0.22115720709357392
-0.13032644076675853
-0.27122198003762654
-0.2204412153086725
-0.2822838827350496
-0.30379237335498077
-0.2551525798335996
-0.3480982144418116
-0.07357160602708795
-0.07507694603722051
-0.18683203232693396
-0.18947492897770774
0.009547163071095224
0.006596456189344178
0.11549095920934664
-0.06937234596914256
-0.13448893323337718
-0.018859374382228327
0.0027135292247084386
-0.02039638340046144
-0.011968606967558476
0.09882798744909836
-0.0231828800310167
0.10854528968271861
0.11727855068492096
0.14739957332907297
-0.0012834719006548786
0.05940638768496487
-0.10686713663039384
-0.042471868077940025
-0.27131647572621176
-0.39642890343462645
-0.1951441266258887
-0.3638308661545475
-0.2690991986292249
-0.17182589218056885
-0.3028030856625522
-0.17897695010504727
-0.07743673373139708
0.1014568373440029
0.023221784596043
0.15574232298891236
-0.021741088319761633
0.19377276822606077
0.07158350907558515
0.06695110291088147
-0.007289035574426272
-0.004530703303707383
-0.064076928746469
-0.01209527952016293
0.06091089088544115
0.008120155888850148
-0.07102708072754399
0.0605102290468571
-0.0036870261579426537
-0.038589425285224174
-0.20032760531534938
-0.3102572894198626
-0.17657479585043942
-0.10328650204947991
-0.016872639533643725
-0.08511112651576822
-0.049829414766121884
-0.22636661275602363
-0.26191001132661973
-0.11528743672376586
-0.09935449467949246
-0.02374597599556809
0.16274685200049918
0.19971532372178608
0.1910127892114856
0.15424645838117257
0.08536508067438604
0.009378701032251153
0.018283454219774994
0.054345994610343513
-0.030286500370097322
0.006057403216400799
0.016396926026579304
0.05672471399958924
0.024903623034193103
0.022153134816578098
-0.09691193897491267
-0.05569337654364213
0.12047003316941077
-0.10128450607443287
-0.07976121358937695
0.03147807345247503
0.008240369750719973
-0.12053383502173937
-0.23842732943641606
-0.11047240463452734
-0.20139575331715637
-0.17755259916204738
-0.09713483182114063
0.10827483334959466
0.17467243270244695
0.2927426384836603
0.2149408682426144
0.08234602483792201
0.13465916564241542
0.10644871998598093
-0.042626965090381705
-0.027300439949304693
-0.01250167151068838
-0.035820835852479506
-0.0099348337156783
0.015076006576801072
0.06953658823670751
-0.08186432582676896
0.15359964597433778
-0.0031055610848258323
0.027184152956999063
0.15592467430392157
0.23145440333281286
0.21900998294385576
0.093757468375703
0.39518766975811054
0.3822164056805926
0.42863626469734667
0.28566690802042266
0.36488854350309946
0.16768943485577895
0.12150563751622018
0.30523724469877384
0.16738335065783852
0.15650411797453675
0.026552015329302958
0.06565580387965392
0.02711428484546311
-0.06426060747310637
-0.053176286887431305
0.0073730241669854165
0.040800410557439944
0.027097985575093058
0.0473699123801102
0.09741901624092365
0.01588245317665939
-0.03443638277757126
-0.0036087522258994773
0.09026612197711453
0.10040270924306338
0.12343551136557737
0.0416504114482306
0.12920006959099892
0.0016613888015895861
0.13860634857531554
0.04712584342573346
0.1270142445710152
0.17231423906708754
0.06316278649935052
0.05331869678930292
-0.06338838463534345
0.10846062789246945
0.0016791480308622517
0.0266742357906423
-0.08352206122774508
0.07386470486280129
-0.03105738548574668
0.0003825559628411617
-0.030319398493389844
0.06477390902603393
0.11079024111136579
-0.027035469733515935
-0.016805957917564198
0.007728235703790402
-0.0029936942852457995
-0.008042211054310766
-0.015986329068479594
-0.040525415887936574
-0.11772533799840001
0.02350394150128361
-0.07086709534514445
0.20710270259929456
-0.018793601827905737
0.08219278900435438
-0.053312956667787105
-0.001285632876399666
-0.05093407543895621
-0.034254778476147434
0.047069157154476765
-0.1026810342682072
0.04407036454852574
-0.02450069670683983
-0.022633358179635413
-0.05064083401108979
-0.02761858968377439
-0.04523235110497174
-0.029200576999609037
0.05269448217409367
-0.02805431964156332
0.0927416543463146
0.061443454477340335
-0.013465323437817788
0.0787024954021321
-0.06998235057754067
0.08037885102475388
0.01653937110402025
0.010940106125500643
-0.018420246221716428
-0.10922450779471944
0.04058270084202645
-0.1459551216724687
0.017512530247187675
0.02142950855537751
-0.06569864162271526
-0.07069966372631327
0.011254481063530527
-0.06068940666198177
0.026195555816637985
-0.10021856278951827
0.06503850351508808
0.08439869629396261
0.04107113216322388
-0.07255301821187304
-0.008884468899350845
0.01432254238733124
-0.07975891136127464
0.03724285717860989
0.003153726749536025
-0.05041178146617809
-0.06290782081940535
0.05766456790351879
-0.0718118525044894
-0.02237075084343541
-0.024913824322655022
-0.008049436482554925
-0.005026349626833112
-0.025857755994060594
-0.09603631631020776
0.007440503611152723
0.04096688501285588
0.02637173467392525
-0.07604688399592169
-0.0019868664320687396
-0.0877907191642223
0.019827837783003843
-0.09614039156919905
-0.04293692507876142
0.0031124342715106853
-0.07843128176277468
0.026334138449624487
-0.05192100209216073
-0.04091042832427534
0.07212492015788244
-0.08774774119837495
-0.002200015145828837
0.01631680266385374
-0.11204524600008317
0.03705732522779112
0.12377273056929901
-0.025603946161601113
0.024189182219706697
-0.06545477383524098
-0.05011382000923249
-0.09227713926346583
-0.15001916464304135
-0.05407829912227952
-0.18896458280478792
-0.1907489673701079
-0.0752463251378519
-0.10347677173020964
-0.015815318708425494
-0.017304919233797345
-0.0728223060736024
-0.016822112035716905
-0.11045168592134617
-0.0506484996236092
-0.04897240526775323
-0.0002613196995534853
0.041878095224699534
-0.012723503551049715
-0.06985893679277753
0.017245189253763466
0.031798188787512054
0.15634381885696852
0.089243442541256
-0.021475130219442525
0.07266448487572263
-0.10617384869604019
-0.002531193315027487
-0.09737753549073545
-0.174180854635037
0.010441365609927112
-0.21582390908611726
-0.24338279533600288
-0.15027891320763515
-0.32276822669999694
-0.22720298527076782
-0.23257618369632801
-0.1602346340470346
-0.2141335778743551
-0.08547481858250047
-0.07598657106981166
-0.1615471122744193
-0.07309855258081428
0.10239913389636338
-0.05012660855269609
0.04918460780231694
-0.008186779018611486
0.061977448728810815
-0.01525991675204232
-0.08292644097988675
-0.0007631989440902629
-0.03103720177331713
-0.0030214460483571053
0.05731768522737962
0.004898107960875273
0.09140161487004349
-0.08721130309866158
-0.16980261128256602
-0.3621503133787162
-0.19252056612175944
-0.2836219519342676
-0.21465411603557155
-0.3834100730905892
-0.42534121078502235
-0.19870611851302508
-0.27773628993049365
-0.22379737330317273
-0.1409570815189957
-0.03655201820121171
0.065338282430071
0.06530971638580638
0.0036694484203418382
-0.02884728700581207
-0.10273429390640865
-0.12662977865297653
-0.015597485436193886
0.04599793135241606
0.034887803985113326
-0.03677340073577802
0.021337560085398024
0.01543898416560091
-0.0767094141395765
-0.07750762712028622
0.052117102028764094
-0.003374188523750116
0.10908909572566923
0.1442199134454786
0.15304968500853777
0.1492473057068656
-0.11594972438870352
-0.07587633773394614
-0.041274122186471814
-0.08021693930535494
-0.21016484669698954
-0.3835740981694253
-0.5218196998511931
-0.3923922441950106
-0.3268211508650711
-0.19961420094851745
-0.04626838076732937
-0.005229333923053216
-0.06370670860952232
-0.027268633253372154
0.02289669162016752
0.03661516371992598
0.013241946107763658
0.00571446864992165
0.14295448980199923
-0.0644377469339555
0.019888396437064273
0.11224133649103427
0.1717605091130499
0.2092317460348526
0.120364960861036
-0.04484860743348029
0.20041318972620192
0.1515224124527335
0.039210114455117635
0.11023224125248988
0.08874396674856094
0.16408872589115664
0.36855768981964565
-0.038050511853666896
-0.2943335806991322
-0.1414400229628541
-0.11194655989932613
-0.012994788807764847
-0.09271665819079651
-0.060171301228434275
-0.04604814854452504
-0.08336579614343999
-0.05428262286572013
0.12885980072193517
0.11139178293272403
0.07610995110971013
0.04044095582399841
0.18068090472088363
0.1416279730432143
0.10136520924927175
0.1656938755721395
-0.01956702679739598
0.1471935259946215
0.07483033037514014
-0.05833977089903259
0.028425086936777328
0.23508184094771473
-0.018064413417714274
-0.009593883157802408
0.30506745742135205
0.16193142731003018
0.025194873244447302
-0.020361389225899452
0.04563187678217833
0.007748931325215581
-0.1497360178317797
-0.033263753992573544
-0.031112393806246263
-0.05225782607627491
0.059912291641672326
0.12375289417555005
0.07679533371145929
0.050346945155599114
-0.01813811234068534
0.014870784150600957
-0.017535916143597122
0.1567279386048515
0.037560676930162185
-0.06375110760450904
0.15773249498747569
0.10922790884064228
-0.08813230544676866
0.05784253293432731
-0.2624201148325662
-0.12920446825500906
0.007627838904098755
0.18182699831657856
0.10982334218545894
0.015126286001712468
-0.052789248892544334
-0.15484674639151355
-0.013650741127024708
0.12454220934124982
0.028117753375392063
-0.023951251975220442
-0.02393379932911109
0.019183550923089602
-0.04757390710103732
0.010171993058235568
-0.12505185017610176
-0.05762870768731257
0.13511019427489945
0.021016484234723375
0.13316489250387534
0.030628604653280257
0.07243463119141094
0.13709067255903737
0.09172315265960801
-0.12585631678871706
-0.0248128942307675
-0.06304796425387522
0.023786246920287885
-0.04610070983091545
0.21669659749713452
0.32674562681257446
0.19988809258636628
-0.06543179475661508
-0.1220702621678549
0.01356039949362877
-0.01725364251422255
-0.023078833742347284
-0.06227566891309333
-0.17997594786094645
-0.25668101344952726
-0.09142517662712454
-0.03365314148862015
-0.004257120192769626
-0.023343909437448383
-0.08301884987109995
-0.018150563978953954
-0.007989172348632268
0.04253057900900955
-0.043462789848326466
0.030518409640914335
-0.21211304414890697
-0.02839656220430385
-0.03671898573071478
-0.030834990920905313
-0.09709085715100618
0.07856849739298126
0.030943572455807235
0.09870158069164126
0.6312147175000759
0.20341500626339595
-0.025767342119971767
-0.13032060184023592
-0.08843999783716035
-0.1841504753645857
-0.11178187820102546
-0.2398200987555958
-0.2756143051195502
-0.24527922649021536
-0.025590205769635846
-0.021354606348527386
-0.001896046000757935
-0.03985591890495309
0.1163323281807605
0.04164985939456932
0.033155234957444026
0.03248026576197991
-0.13091870818830031
0.07659738669725714
-0.04037859284524072
0.17988012539182494
0.10289134934559299
0.11980753445586664
0.3133192535744968
0.054787893182635584
-0.1471668239832511
0.09438834941179655
0.582787971534851
0.5622757548397381
0.3530680004613931
-0.1312123825056179
-0.03806224156256921
-0.17791389889471032
-0.12502813302282273
-0.17379986406216028
-0.16817322329761106
-0.23967648625438012
-0.08651152643090237
-0.05091220717852982
0.04133372760727476
0.030648525442628218
0.11082833507283515
0.0601221275337332
0.04913438121711777
-0.030049818250108717
-0.19068982547800262
-0.07239735563809155
0.08988390580055863
0.2688574831537704
0.13600273786365605
0.07368411417498251
0.09879746410813096
-0.015492002105962542
-0.1477825109802835
0.20529651659884945
0.43106348575182035
0.4717519677959666
0.42734188294445785
0.06984233574774851
-0.10675021592775474
-0.05498101735202393
-0.12049067041332989
-0.2260813161245467
-0.39411950103766474
-0.3081374536302537
-0.03180605499731652
-0.00968419753092923
-0.04889689684233805
0.003197539192103651
-0.06703535193273254
-0.019406961353679843
-0.006448344384990632
0.09510704986758302
-0.07086124258804316
-0.13655728378040524
0.05361451040676385
0.25566356360132975
0.09774233251407462
0.17466563203312568
-0.14559348919580986
-0.13253533442400126
-0.08486055745892017
0.16915645607402785
0.4533091726273633
0.3922733903549979
0.2947843299350876
0.15188366654442256
-0.17307043558998633
0.11046790687738071
0.020696519924221307
-0.08649096400119478
-0.25352953181671956
-0.18448452640166293
-0.05338789708071089
-0.015590130024878173
-0.013686327445853944
-0.02445677873065739
0.020287743637032948
0.07274382170486413
0.01263309584159661
-0.0025722339222740797
-0.033254430146586376
-0.12769252036780382
0.04506951785756992
0.19862032899794485
0.21422164978743985
0.17485884208830024
-0.07086306178377028
0.11580195476717191
0.054336959905808495
-0.021903410631652825
0.2414618051451105
0.269617421744781
0.2848607843742531
0.23044848456376185
0.11577534941213806
0.038075939579100354
0.03116105093689577
-0.042550214676807294
-0.16814321889375985
-0.12766761535132734
0.018383206507830818
0.019297807821628134
-0.10959611812571513
0.023660711540100493
-0.02069607960553366
-0.06570084614158293
0.08322372650583344
0.06458266334010972
-0.014418467004488691
-0.04295131340997344
-0.1524805594241209
-0.023819647668076604
0.00641047705913289
0.10644384284548356
0.017029046075015375
-0.03269957633550741
-0.1703567236045858
-0.0932087523702031
0.1795917927566109
0.4487879027966636
0.45745563807806566
0.046308361983370135
0.11093569915346328
0.06832206528957929
0.0885601151713749
0.29528781242943514
-0.005542511387816432
-0.07762450993443418
-0.11713088343614102
0.028246292796628308
-0.06676377610569016
-0.06053467685809926
0.02037390346903356
-0.05655766524090261
-0.12103632627321705
0.08040259434580074
-0.13270187295158486
-0.1767979699804159
-0.1295724549854533
0.09649691330867677
-0.012195736367353572
-0.0540426569137767
-0.22487686023666692
-0.008120843603224168
-0.04097596407386361
0.014486673863184725
0.40260344951464544
0.41531525443075007
0.20132023111195693
-0.1495289367892303
-0.11257868679663531
-0.18279903223927366
-0.1467257164945659
-0.11298645110886599
-0.2814056861059522
-0.27713744605764856
-0.24355319972985032
0.017024238292842716
-0.048915929089391276
0.06341141291927584
-0.030658977642471153
-0.17851941293047077
-0.12850447674534746
-0.12856841448319714
-0.29987062543672244
-0.4944272601846169
-0.2596050331602897
0.05379793314071748
-0.1564159877315644
-0.03240520564122218
-0.1795196475694491
-0.08192128213842774
0.30754279216085817
0.006931961647758911
0.29243096676496844
-0.0559356662414029
-0.24736701217084434
-0.15344914266246215
-0.4812018371027943
-0.06899620165469815
-0.2211693107697494
-0.33443435244045344
-0.23720379591938784
-0.2333644006867722
-0.1253922535729342
-0.17424227616594865
-0.0001512832185681244
0.055331713416638235
-0.07728076068915717
-0.08669769541313009
-0.15298181887573783
-0.20039901811869132
-0.2611845837777362
-0.4181733932963681
-0.5600890321727823
-0.4533955065626315
-0.2698031679775568
-0.30228953834268085
-0.2542251807253226
-0.1428259900506933
0.06246669044992215
0.12055994552716529
-0.020259084781305794
-0.18585457734874217
-0.41939583786746254
-0.2867645459966269
-0.5194484116437188
-0.3761573998121258
-0.3473196359601159
-0.6532269067508273
-0.3908128434616006
-0.2985233591709866
-0.07637907395046332
-0.04509749863805715
-0.0906892979379662
0.0038801066545263436
-0.02487209679261845
0.007645062820977457
0.015660092742790906
-0.23006475504053264
-0.26220606716278666
-0.3663638347915886
-0.5483450059242576
-0.46174794428298543
-0.5600504871886335
-0.4846907113479837
-0.46404694834849974
-0.38559223230430223
-0.12659940219088744
-0.16627521711257903
-0.34556067535157614
-0.43593997363304016
-0.3444809783340814
-0.5038549012131459
-0.3996517513130159
-0.4019532915825755
-0.4073725439872469
-0.3752072516478027
-0.40869568060708933
-0.18981790770708046
-0.06906123752977435
0.06116103453410581
-0.060472368383773255
-0.041977742018904945
0.05664284852287309
-0.1301036195027462
0.004655709075821984
-0.11889633377869657
-0.23402401817927565
-0.4378620807411729
-0.24283399086508722
-0.19202129350351857
-0.315083438373511
-0.15285236074851116
-0.14595471626709677
-0.1393589194551708
-0.061434075229783884
-0.44769646309308203
-0.5198974219414443
-0.2765054857861768
-0.4041272913951599
-0.6416077583832192
-0.6068792126269849
-0.382126514191963
-0.27822658829434777
-0.27963098851069906
-0.2853960797635423
-0.0008099567699407998
-0.11111089031391073
0.0025610473776680825
-0.055091810727352315
-0.01822083919148211
-0.0667104606187505
0.07070631527243787
-0.1213849500538403
-0.20033613411426604
-0.07864742093064804
-0.26329570921472
-0.0927877626520385
0.09040083428951734
0.24334314519683814
0.3316036418626238
-0.10266243738493135
-0.10557327428585968
-0.3838337552851755
-0.35638626090971315
-0.3673348707756429
-0.22325606628472594
-0.28830004122534186
-0.24491684012575807
-0.12614737499811715
-0.20349282644592828
-0.2703922602740488
-0.17337459011253445
-0.16601549939637836
-0.017087387656354164
0.06074373495062406
-0.10143002370106576
-0.03432299506245933
-0.08706398127436812
-0.004093153946886193
-0.03580751123013386
-0.04385333022638341
-0.16536018692637428
-0.12924242799081698
-0.2459312265751073
-0.04774792212608522
0.10457637777790679
0.034227988736638335
0.21545449950423223
-0.09007291610566963
-0.2366905106159995
-0.1783459556005851
-0.1518137024539168
-0.017202912232361534
-0.064958023792497
-0.22812551890513727
-0.2110377444557626
-0.06688690453881324
-0.21980039141219943
-0.03443683265744124
0.04046039827760278
-0.007081460647383333
-0.03479274337233434
0.07943979062125187
-0.02876623081469376
-0.02754332455016885
0.0335074998867639
0.05464904865053284
0.05488582445738365
-0.09288973736337967
-0.14042884427893412
0.018220905701983713
0.07846500586636894
0.05329610363818648
-0.08128065974553114
-0.2625062112627562
-0.07057468027823657
-0.18229508209176623
-0.1293559105191041
0.09218497955364699
0.030004837364200124
-0.12699787962904202
-0.11016223692037494
-0.026896572925568636
-0.07139400326697692
-0.14387158696408472
-0.1261063315594772
-0.09140413201875328
-0.017206123746440743
0.1507533799461544
0.03730412673274519
-0.06631648260391804
-0.018939723576089695
-0.06151429491171924
0.017863235125434054
-0.003291831224645207
-0.04232554311610686
0.041556680651813914
0.05064113362529707
0.23764630819919483
0.24615181945038905
0.024771085997735434
-0.13721237068958533
-0.1549726924459525
-0.0854193316795086
-0.39606863733002484
-0.3693912772284004
-0.3469522874412582
-0.3161717389980579
-0.1607818975295683
-0.04635072387359759
0.01297514667364705
-0.1800642612371787
-0.24710022817022134
-0.23343183934306977
0.036507252311845484
-0.06921130195197293
0.0322978854217576
-0.006902830838762858
0.05197694863671984
0.06598207292983313
0.0733044641170846
0.009900568597848295
-0.026757932187178684
0.08280932932992006
0.04626235060948318
0.0838143162072928
0.2236623596949419
-0.030438490441683033
0.11912683436076738
0.10676991536108431
-0.11367462327783555
-0.2768864166249631
-0.04712080159425787
-0.13947105628449005
-0.25609967158574504
-0.06361818852308337
-0.20311732740742142
-0.1575769880074877
-0.15224483718133996
-0.0962847314518679
-0.25113991960100673
-0.00024562027250227037
0.0642033947229526
0.07491996235843888
0.04846046443405395
-0.03447780702554362
0.015128702144189075
0.025058175796250474
-0.01308646615759112
0.004579216446065989
-0.011815702183492666
-0.03985262224442854
-0.05564564200868807
-0.005881066814384485
-0.04281068437725388
-0.05671077811905383
-0.015310557666560975
-0.013854224241485602
0.10568266496562095
0.0912329540376068
0.05636921537328685
0.00952966002680851
0.05409463731551377
0.27140898230612537
0.058254336324441436
0.10716195161027565
0.06768344712311404
0.032790737957249634
0.10515408444820211
0.004746764696675139
-0.00928679037050104
0.08778580391122104
-0.08034139137588303
-0.06896886277359353
-0.06585091222933193
-0.1036879479586037
-0.04329094408315062
0.0063496635970078244
-0.0012701790830103826
-0.021273206261230214
-0.07936463574206018
0.014632441682019005
0.057610517744382105
0.038041007986855765
0.030920094424423988
0.02234494013652877
-0.005336544767515493
0.007816672571078154
0.045909182244313104
-0.00666528151942415
-0.07907566727585476
0.012292165325849506
0.02590576538878994
0.05770518894362749
0.05053281350744317
0.023473177632678324
-0.055291896500143184
0.10776419816495181
-0.110165056182519
0.024453025438373414
0.00792279490199191
-0.07269988759387824
0.03560609015099832
-0.07692977459838189
-0.09013945156908763
-0.1141875569158996
-0.037116445044288675
-0.027606049103517112
0.09057606788639293
-0.056826408223154753
0.0030389725443096833
0.05705611812568854
-0.14734185589123056
0.07907176805119392
0.01903591876666648
-0.04374071186076133
0.039848534299233726
0.025110943257645003
-0.03602255530323787
-0.08547798816135072
-0.033349684470793756
0.0697926250905137
0.005340985611577581
-0.06027914259515387
-0.015197576117817042
-0.002735948625017451
-0.06693700571702496
0.013501540382000047
-0.003440290883008162
-0.07723541941491881
0.12736824581920386
0.18147204063206984
0.04367671519756135
-0.08697574307384384
0.039810895292257814
-0.08113822790052355
-0.0680240039570157
0.060146261578816945
0.04557888734255872
0.19685030539797335
0.04958132020634399
-0.05437139978853798
-0.020912026239048514
0.11536949393805868
-0.011328476363669295
-0.06421564983681453
-0.023871394977865276
-0.0752348703988872
-0.024856300764771414
0.03683603898040858
0.005427569420095915
-0.061616821164772004
0.05055585917022787
-0.05177815042743114
0.005058599560013417
0.03374189549730226
-0.010368509160988804
0.036855956081921874
0.003525026069601675
0.0034101413473122174
-0.03465778951268538
0.06110778655449935
0.11808254622287283
0.012575952716302982
0.022903374727354226
0.04688156129087949
-0.16003485854850905
0.1750917515860008
-0.06076416261793551
-0.12085494789182846
-0.08437487905400073
0.0036917652525498535
-0.049771468413177394
-0.2880482115342349
-0.092031081935652
-0.16554809762497041
-0.18628838715960175
-0.14953818274008224
-0.21962838197842433
-0.3001243709430692
-0.21975823703968186
-0.18472115254917296
-0.0920789495274512
0.035909306002370925
-0.0357906915915882
-0.05745747335733712
-0.03226918523374726
0.10575450125663433
0.15511890751169602
0.0050637584176669624
0.12227931183929996
-0.08292412350134619
-0.011699566317484726
0.13744901761467962
0.034499073981993526
-0.06002424480244245
-0.06663638247403736
-0.0516868218921937
-0.17324296674922282
-0.061005627043001276
-0.182413998680231
0.012840005906686864
0.034777771629551264
0.03250082501855617
-0.04758826137645795
0.05464522313522338
-0.05289665743208343
-0.4225166532041486
-0.325753073916278
-0.2703079871432976
-0.39424316751742744
-0.4073620977929585
-0.1960218220171104
-0.013409403106972325
0.061348708909641364
-0.08804966291583681
0.028694817159550516
0.039102788098914334
0.013105631250527223
-0.050481841358115676
-0.0638492340517072
0.0456524971863614
-0.05858870141905402
0.15356124439631857
0.10255443961012133
0.12210238732315266
-0.08549404558536647
0.18584799792763176
0.30126771292950166
-0.06370902516348233
-0.08472108315622619
-0.1908439247976822
-0.013822364774210701
0.010046065087684757
-0.05372830487011766
-0.05526362128897207
-0.19747065219720028
-0.2814053643403969
-0.19286576216107057
-0.14373176071388863
-0.11763185653655625
0.14552988530424213
0.10824563537686459
-0.026199411827713678
0.0703298157086226
-0.045156311626669866
0.10729579980098587
0.05221562399698852
0.07306520146660969
-0.13128035657189796
0.17527197566683414
-0.03348285674882169
0.058940891601768915
0.14308691778364213
0.08125436203312097
0.23704328416089498
0.2917639858153057
0.1889930238664837
0.1725243993829166
-0.014928378643302476
-0.08404203766567528
-0.1411265277727188
0.08882320937846437
0.20079038249396516
0.02333181791898243
-0.04819683063371469
0.02566513372991744
0.15130406167372226
0.10661569545109381
0.16863178261082873
0.16633788657448892
0.03624845028021041
-0.021528499267843584
0.06158756386280066
0.06713826705826159
0.14005985365445955
0.08605988233671133
-0.016794183777031874
0.2074011973026247
0.023471294924383653
0.03408759027925368
0.1791485877878502
-0.06643670462237042
0.11576521925976374
0.18007687929960697
-0.12105738607683168
0.05075824944567354
0.22742136027582596
-0.0365686623946933
0.08515299207118923
0.13112891908240817
0.5755417401161157
0.1564564137177817
0.12908461012742217
-0.11255165137647333
0.03348503668537768
0.030729983862547237
0.2017479870806839
0.24303058851813747
0.06491063093800353
0.01982839141958186
-0.12153722860029624
-0.001994248986940037
-0.05681174335163378
0.08932311310688382
0.07104769815072766
0.1351030825278397
0.02350716204784617
-0.16075809130378255
-0.10483056535971394
0.0538905867788236
0.1273231133770762
0.22160042574510352
0.3976604303432141
0.20555728022168224
0.07538169102990283
0.3139408097895944
0.34553610544496227
0.15245890338282567
0.23131923924186323
0.11592697219160122
0.17319749778449203
0.11203707632220473
-0.16563690521961666
-0.03403994641697486
0.06822443643228163
0.341465226151659
0.049142267396069694
0.0725598050305295
-0.01654203193588039
-0.08256833114597538
0.11167690560880539
0.26911619956862465
0.2100901252470903
-0.0011272960572209713
-0.10483669049990206
-0.11708066627684822
0.29380588060703233
0.05114646883222005
0.01204854480819782
0.14066873878726796
-0.03213070065979766
0.029545052638511076
0.2399280045396834
0.03723581217405339
0.3718544619334618
0.1399426365483008
0.37098117062034863
0.0653460946584832
0.07256907270885991
0.16766206256972332
0.16748029177298465
0.12466308003750154
0.10797533578358
0.29524601428313607
0.0858080690352511
0.05401338553391359
0.008156032259125342
-0.011043884185629998
-0.014660842850422634
0.14554804311459743
0.10528791248916343
0.04389256856282955
0.06120536353769119
-0.04315797218953509
0.03758660769519588
0.02025896151472722
0.22678544851172064
0.09721690859915241
0.13020772932399788
0.3089611588544943
0.4424725016473553
0.39907658394939066
0.31158259217196577
0.4561679984539682
0.1914433700703626
0.2725824572620913
0.1735448748792216
-0.1480001751269787
-0.025788794616972727
-0.019512636638872587
0.26720681049524286
0.2524903778806914
0.017004726604675814
0.11655390104219969
-0.048768355315340135
-0.007449541217342535
0.056719560030854696
0.24422102087413394
0.15292271952647563
0.14262737284666355
0.047798298438678555
-0.13298640162842923
-0.12256675435839219
0.05286577715283608
0.05239576967794395
0.2285960501781684
-0.08247214888435456
0.11043487885209234
0.3509445732147611
-0.0030539551014702026
0.12587578175803196
0.1112964820119782
0.04353043942576337
-0.021000865943543456
0.14369916834724844
0.007133393286767046
0.03700843214496174
0.06605178384794372
0.07537416646497976
0.2891423111594663
0.1632336807833509
0.08100368235214657
0.07919095667712799
0.012197664181511672
0.00043101959619870514
0.021892543220664657
0.1143729984871518
0.25140273167858623
0.2746754928307777
0.039061122335209114
0.05672527296636341
-0.20124667636775886
0.1398809780378644
0.15214240384951042
-0.012105432960498591
0.17742262256168925
0.02936310719167948
-0.2076855786492447
-0.324468454876068
0.26487956817159514
0.014658413517355095
-0.09099369423275176
0.34406624609852043
0.20803137437788002
0.22261068636373554
0.07414570302489028
-0.017484032535888105
0.16503350777603254
0.08500347947663008
0.06780549675432694
0.0729040512141563
0.04699250215791101
-0.051242097156640624
-0.02429175862802523
0.1991354482576013
0.2783191031837635
0.2799147614057881
0.15023139036144154
-0.0770327126296389
0.132380768585327
0.014509063201057026
-0.12017628836746462
-0.03665819478553991
-0.16198067985463754
0.13465928310385547
-0.3561752723535375
-0.1677489245200031
0.08682587474439087
0.22714879029650206
0.07654768264044233
0.049046775060163944
-0.07867239805394752
0.11007373552877678
0.08674699761660062
-0.10028566420025262
-0.09303996709684825
-0.039083159272325835
-0.040136659647308406
-0.014180500026000863
0.002674897920021015
0.13805278879741983
0.0950193027754036
0.20076398736017395
0.30634095070639544
0.06605815989370147
-0.01425950961048407
-0.11106736303021826
0.03237726735812669
0.039456273209093236
-0.278947365315113
-0.0815999845373862
0.018354013853046282
0.15750831918845237
-0.4840977606721008
0.10123104099262377
0.08087000002317063
0.25049018134736345
0.15366007920928781
-0.0601950759777967
0.06128405280034262
0.1330770932719571
-0.10462916094700174
-0.202754556682394
-0.03214600210033951
-0.07376496207170091
-0.0725286405411774
-0.07523862388983449
0.002985213615931433
0.05201114258143304
0.008502471722031472
0.009261035394792274
-0.09309232085199891
-0.2306954543313986
-0.17354270913186745
-0.013527280222113108
-0.07895349102180031
0.11056961504594408
-0.38434345829850697
-0.03437896576773621
-0.05612816646837693
-0.18446315081348572
-0.1728408648307254
-0.05904335428145575
0.12433997588078383
0.32106170837889464
-0.2374199034574317
0.06241992113697951
0.17048731504096243
0.1060934969025192
-0.018300453952409246
0.040900849783136135
-0.052802246083822967
-0.05160562108718473
0.078759967991054
-0.06444466974492546
-0.09078671257005744
0.05281543223525326
-0.2167915886398316
-0.1215650502929464
-0.12052067830709154
-0.15295925632002963
-0.03444898205458043
-0.06236059646650833
-0.25944493929236084
0.0028161356520192316
-0.28222850859085563
-0.35187689505117553
-0.3062808197348767
-0.7049640167879337
-0.17748241271768744
-0.010016517012318201
0.24540828782264595
0.293860113507887
0.18250498056197895
0.28025518608372735
0.05862138046113083
-0.14313093530495427
0.1518353033877237
-0.0775721036781577
-0.1452014027390501
-0.19224668457022695
-0.014753706610670443
0.09090914303553448
-0.06799808690321275
0.09269171470767223
-0.024157590088547464
0.002219140469266081
-0.03203334589770967
-0.28820839969896334
-0.07608986046382708
-0.11767722725375789
-0.26092495120774567
-0.09921072974194095
-0.15642161750093056
-0.4926461612296935
-0.3996193679154054
-0.5164353016141531
-0.43743018968125147
-0.052680837216023575
-0.06316369001618341
0.18506632653705665
0.2035028786151249
0.1368917084696805
-0.21869696058752205
0.03426576171811273
-0.02349691822665088
-0.07187046480531448
-0.10078704778236439
-0.1009659532731031
-0.10162504907953611
0.031123173984860284
-0.07113323116005459
0.1120122234829736
0.056902685616220965
0.14662271509993144
0.043666923026355525
-0.12223581370911152
-0.019973866651183506
-0.05336535759785705
-0.04623231107564987
-0.04599930003696587
0.004445374361168254
-0.06485080741766926
-0.21887288974971147
-0.33625408826497405
-0.11756409733701768
-0.026484487325496627
0.3066000295667636
0.17679388327630086
0.10351585187660339
0.07102063693874071
0.09896756108905694
-0.07825950272347494
-0.2230823813601483
-0.1677057750822268
-0.11054141477276594
-0.00288827661039779
-0.07759936199205676
-0.005312874502345711
-0.015560014596855508
0.04364774455281754
-0.020298427327763744
0.053046044612405474
-0.09749728979107462
0.13209398057591407
-0.10190619147444092
0.12055588150578142
-0.20472520519633466
0.06414857606581122
-0.2019573896106421
-0.23867526612384915
-0.2989160763552733
-0.1310143107834832
0.15943948269400565
0.058548563291737486
0.09776388406302489
-0.07881470654319363
-0.00927131519729517
-0.09181648596835347
0.19699391921829615
0.22216721240785633
-0.3161017219642017
-0.05267060415405591
-0.14734441613182697
-0.060903550614346574
-0.03630598406029304
0.04331458156418041
-0.044664150368365726
0.2533075144971424
-0.07577130467670175
0.14388078644773675
-0.08253790483069975
-0.026136873339202345
-0.1787815439508648
-0.18838410531984168
-0.2800535350112687
-0.383443063876369
-0.3080813874921199
0.24404690828880904
-0.18193636716787753
-0.1664713020447281
-0.17110198594128184
-0.21152819677977017
0.02709743626408647
-0.06300763474780237
0.1424631890903516
-0.10519910116223105
-0.09866882668355682
-0.16544527695821143
-0.1539445602390878
-0.1251465405642438
-0.06393829449122682
-0.010787997875795874
-0.1495889847190509
0.009709143506179383
-0.024253360420833876
0.15460781266884108
-0.012310399073410984
0.2145811112298787
0.024265024601943855
-0.037175747692236236
-0.2651130026527605
-0.06123385773045549
-0.31147457837998127
-0.03508165380138308
-0.1255458533348041
-0.06935905182088892
0.2952945762684169
0.11560675964720439
-0.10081333039722228
-0.033311297917772494
0.15684149812820702
0.1078079054457716
0.08678098040849969
0.04725094492359758
-0.22176015218756634
-0.12850692302750788
-0.23805513310418722
-0.19258582512386063
-0.21468055732576866
-0.10994676195290058
0.03703299600075621
-0.07884198005338924
0.05933586632249181
0.10281365690289203
0.020716276529111396
0.10682826218614072
-0.02072783981589516
-0.06853138806521669
-0.09352959225542926
0.05695343259279277
-0.19177012236113145
0.11473782557028667
-0.06797049801950669
0.0547052769838572
-0.18024254885997115
-0.18497173075476833
-0.20874635055233015
0.2783070500626027
-0.2487999849226109
0.02837666464228181
-0.1131365824850546
0.05255917409810061
0.0990816176461519
0.04667077952082195
-0.11716419084030515
-0.1799962986080069
-0.040995000931210605
-0.05005471453404474
0.0026534872388325774
-0.022072056415502087
-0.07828822857334836
-0.11778045838582848
-0.057042314195105685
0.0582752827071836
-0.22078524048494277
0.09649003182591867
-0.0857115743616711
-0.13207241585277216
-0.014377967563622624
-0.18156304376673285
-0.21247613067919924
-0.08252859447355258
-0.08227332818005588
0.09814108347231566
-0.21651692497516298
0.048633919601558426
-0.08513479341117251
-0.21549582618778323
-0.1470592261075868
-0.13432038539913593
-0.27109030217566643
-0.0037909218671982278
0.180802922021568
0.16026080599806844
0.06974764747984605
-0.0071820181044308755
0.0617913508205838
0.04143255866461625
-0.0370604844364265
0.05655050291866497
0.017133557132253032
0.1583449662853303
0.20300847093153224
0.03738527801081358
0.18591095485101977
0.18457415294572502
-0.21302276274508253
-0.1077231671657875
0.02526841738324912
-0.23116936291866183
-0.24732182412327158
-0.06984915412068311
-0.22134405703329457
-0.2112998850385392
-0.14485514613405953
-0.13576326921014575
-0.08982254363262057
-0.04704726743650791
-0.017909350845684395
0.1704834392107676
0.1645888930988473
0.17257185483751492
-0.003666029214164596
0.11402292790231315
0.11022163200553851
-0.08891440042451108
-0.11109988609762518
-0.057337676046055074
0.07995133883961437
0.0301288889908294
0.1528978793793462
0.2964460282211437
0.2769073584670762
0.1303625934349651
-0.15957288758440608
-0.164988210429481
-0.1624841286103392
0.03351971100540631
0.022200605607701828
-0.1373192855731944
-0.09173624291173517
-0.0982030139338097
0.04268431932137664
0.17565699950867222
0.10692955618578506
0.24482417859937924
0.15855002602789922
-0.02025826490715471
0.04343985429006169
0.0032009055205186017
-0.13221869291035712
0.08863518205185597
0.02226664759951398
0.036260078195294955
0.05756575099657643
-0.0962903467630639
0.06849823621817792
0.052006747068165396
0.21769589910279602
0.08547484349447529
0.2523309439924512
0.4350787832624565
0.3902399882818725
0.35903918518787703
0.33971092541903264
0.4611187220636925
0.3319160873856085
0.39961476062196594
0.2679164936137982
0.11585775652333168
0.3320790355895801
0.4003958483605176
0.4242609770553619
0.47733750787462054
0.11758949494855161
0.27586036115909757
-0.0019798674251958214
-0.04919213400291206
-0.06990735044250432
-0.07208428941610659
-0.05458260820096825
0.02866862916129539
-0.12362737061375026
0.08466064756940632
0.0367791732195516
0.11852575733384105
0.09062156870299638
0.17745941796220213
0.20278717039597785
0.108274989482969
0.22323810592019494
0.24855240787388702
0.4329177218453951
0.421346637480471
0.45554658629024797
0.5940007802013374
0.4583915610407531
0.41899275966500843
0.3051796001849994
0.475684083747278
0.4225342993477027
0.2728474550728373
0.07862958547771429
-0.04575788900387714
0.12774828415277478
-0.18308698310475344
-0.010188148171161558
-0.026727105837422695
-0.10649508830135793
-0.0005555155662972904
0.054828380888426086
-0.06890415069080408
-0.11852680857574281
-0.04794457838147768
-0.08245343883433891
-0.03948052314980221
0.14139275314040647
-0.08019759251809357
-0.03663994332883652
0.10215009048906218
0.1782119670944059
0.05419095981964398
0.08661951717710442
0.046106201502886905
0.08441643766435636
-0.10781524007004915
0.04079501381494585
0.004032990155904229
0.060978873849316516
-0.015379305614327828
-0.06438905067034731
0.03978323480657168
0.0025431385366274143
0.09217436466254122
-0.11429946727234493
0.021591850714976688
-0.009893347063721015
-0.006461742015360203
0.07591980168886063
-0.06234815441944705
0.08389962940425327
-0.04393608237884238
-0.029837726788243157
-0.009961312779752573
0.0710549109766981
0.05339534979593885
-0.030689914557726787
-0.04902645040058741
0.12442052427282742
-0.0629663041351741
-0.04751069349240732
0.043433606828766756
0.003199851592335825
0.14114393577070838
0.034333237557335125
0.013775848281532381
-0.11857801676100149
-0.015093844471595754
0.038851206987470764
-0.03401827566544919
0.04459972312683362
0.10172026479305889
0.07475567864900358
0.01817346143693116
-0.06068581657338367
0.13588991499502873
-0.002692920817340305
-0.09617398335322433
0.005340676149652102
-0.0188124089318345
-0.01253680743014256
0.05667808040425058
0.12030647907159389
-0.026782855796742253
0.002616294350057672
-0.10281035565503233
-0.06922553828221245
-0.13990173770551054
-0.02798546389343203
0.023475709880204094
0.08941768159823058
0.07564288116848775
0.026224927308044554
-0.03594630784102584
-0.08723533596629776
0.012620933905228183
-0.15157345985654178
0.07812088628049539
0.012203706145701425
-0.14475115979260864
0.040811351335990405
0.05791258995953328
0.004745603923836028
0.015875892457775823
0.012449978040325103
-0.005945869234167716
-0.048161762031866125
-0.06343941211262306
0.03501071473649527
-0.026745033030836248
0.015929068047201202
-0.05052737411263883
-0.14490330825519493
-0.0588911426889914
-0.024687900601863374
0.08440409325543717
-0.05891276862371833
-0.0328673177115676
-0.014023828567860325
0.08944586856840353
-0.0874470554981628
-0.11734603008321846
-0.18920061237674288
-0.055827050231229934
0.05473092020154279
-0.0508722855901403
-0.13538156758061404
0.0795040809322298
-0.006680435968472223
0.008873984784002203
-0.09615519425995561
0.06845802820989143
-0.028542160585016945
-0.057880614771441075
0.04247692440318622
-0.07518466322664616
-0.08643906176171816
0.07364984697678022
-0.032141682597213575
-0.03825898227279919
0.01035493435121771
0.005307824275126863
0.0035620598565417913
0.05081937841375747
0.27288191519080063
0.05655580358051195
0.039200797933924995
-0.22257323156797468
-0.2022135287454305
-0.19934245912729426
-0.06498799991225505
-0.05511758162826454
-0.09410359129131304
-0.0625942325512079
-0.05541553504762042
-0.0485212277897808
-0.024758909408492416
-0.0399787854015415
-0.050100963518311975
-0.1055768766478589
0.04155082682127246
0.028664916301446436
-0.0359413560880043
0.10883315230001094
-0.007064298783160757
0.0877834976179805
0.12418002793153207
0.18109888882975614
0.058622947271289944
0.1962647842471361
0.07427961298463821
0.07564636819474443
0.05813148579228268
-0.10340489494827879
0.02647172639099781
-0.11727089429897632
-0.3613817258729294
-0.22026763728257853
-0.331778079754794
-0.1339463207271027
-0.057158527720551716
-0.09268450118509122
-0.0018432137707884992
0.04353865845188479
-0.008035819669350325
-0.02151622301335655
-0.07788262394201553
0.16875024565622676
-0.11965496140460499
0.09978879841643995
-0.058592292587017626
0.13364260243028647
0.1332615394291388
0.33780205882374403
0.13840856874387225
0.18038791336262588
0.16295570616104704
0.005349882554117964
0.09122339834381563
-0.09023895073037226
-0.020040383100060028
-0.013926287113176878
0.07059365962810293
-0.23997562733413627
-0.3331315099903317
-0.41015434928025174
-0.3537451759103915
-0.44175065066366465
-0.3295931803669976
-0.19422710421345063
-0.10279569970919519
0.018890912742152686
0.020269230095257763
0.12430629357480223
0.01804823008762271
0.1832371860444618
-0.07825938203471997
-0.0700300945082741
0.01857584155602788
0.2476241504211427
0.1945693677485864
0.3056061789332744
0.08541116348411798
0.1419660530976001
-0.00025727161761401554
0.002142195604927975
0.128289095778487
-0.1367062757804434
-0.008363869218598113
0.053138006366815836
-0.06731314803386489
-0.002903415960316793
-0.13434967819441326
0.04280574836138453
-0.4158084674890937
-0.37546140975549147
-0.25890519721087074
-0.40119396459728623
-0.16533200288788313
-0.19654970640360556
-0.03671140172928416
-0.08593149848488647
-0.009728532045142744
-0.0911660215640266
-0.1552443838484443
0.03452218404263566
0.1277666422528043
0.18023992389306295
0.14171961536490665
-0.021790846836853766
-0.0357906093596365
-0.21675419949739344
-0.3571361727099723
-0.15504523983646779
-0.09073517564758896
-0.28709455945438045
0.0017269100717622497
0.008227781060071066
-0.054578450500074795
-0.055124479304379644
0.04402485941731835
-0.10381085805263857
-0.2587612576830066
-0.445014122811593
-0.5801922216806326
-0.3276923246237695
-0.3313706562100619
-0.3011764335073657
-0.04212521977230209
0.09780716781212702
-0.09253517339900678
0.06995065645691073
0.024169036760023185
0.0006783101352085394
0.2015963499926302
0.3738702384401307
0.05576498990149855
-0.07421970125006551
-0.07535767066791461
-0.19095996676067165
-0.21445245997292173
0.020910769511794935
-0.23521229903486193
-0.1555392213297917
0.06429864046315026
-0.04581827809217541
-0.06379697803376799
-0.2145972747191778
0.11106030410140123
-0.18500384631804298
-0.40614644023421137
-0.6025724912798772
-0.6008947528829961
-0.39714259051817014
-0.4649614725996835
-0.3429855995485655
-0.07729079758651095
0.010723813572834499
0.014868186607925379
-0.006172026871320626
-0.05486792189355413
-0.02559209342294212
-0.02682327833311541
0.20027416881334706
0.19799120849664584
-0.035011337293172205
0.16141932944289533
-0.10962476320170814
-0.07211208519864176
-0.10306105192280128
0.09433381337790737
0.15966823948925507
0.3019401864497421
0.6477523482824402
0.5634070397679346
0.32932451130879453
0.19169382623287665
0.028052917708813196
-0.3759673024868702
-0.6357010364244475
-0.5811274437801929
-0.45882806663488074
-0.3318671866595236
-0.2768706850519833
-0.12633152913573972
-0.06707280943050747
0.007783283767457932
-0.0735797992451962
-0.06555030863798327
-0.028319232264946054
0.12700501059435026
0.15345706424478897
0.26272724804442066
0.11870401441154642
0.09739482076257534
-0.15249399382987291
-0.05979199916340563
0.2883420131808936
0.3259076143028571
0.23009584191706625
0.5605199113256986
0.7264881649271565
0.48053806600294
0.28792168088138526
-0.006611997081686439
-0.2954004430157146
-0.5304805287032635
-0.39190595247277177
-0.19460514717803706
-0.24618610487939743
-0.3072292514377714
-0.3085906646067262
-0.000958498140096085
-0.11355293911973745
0.059221162999504515
-0.11013470637778751
-0.025340403508705193
0.11049563033216826
0.2195626606843011
0.27174106111677965
0.23730822037716032
0.12098022309782756
-0.0765692096958458
0.12786011728407265
0.2540992910956388
0.11939549789699909
0.0058073649308659735
0.1015670561764101
0.4980653877546632
0.6525794339574904
0.36862336490892417
-0.23015489573467435
-0.3266439194609826
-0.47466526331477515
-0.45729683176351354
-0.1570571929298942
-0.09861446766368316
-0.06976114573335948
-0.10924724650378016
-0.0733376922928988
0.05603837969797248
-0.10007340424337062
0.04485555933421586
0.1546809147147764
-0.06862932072087198
0.002318382703094226
-0.07260971068478743
0.13205038443127082
0.2836931601210139
0.2958920564619087
-0.011551915945530953
-0.034288058226797855
0.20197047756473646
-0.19173752369094696
-0.1330130335834175
0.24861264950328105
0.40977395054091587
0.7267310938337219
0.06790713809263325
-0.24049692067890813
-0.28646710700893135
-0.3689382756765583
-0.3053894166665194
-0.16141735661391976
-0.0404065102363204
0.045596405578404296
0.13865921530216369
0.11062077942117243
0.07662302647235918
0.1162793399897812
-0.11852335375803734
-0.00774824476923912
-0.16718498255613423
0.02071861259253017
0.0006884000350792843
0.02987920581191642
0.1774784587836808
0.15760568982377238
0.11832646005246768
-0.1664184106610152
-0.21739512560061705
-0.0630150485030951
0.0016623302452110124
0.22798228475241333
0.29979812473966017
0.41029770146197697
-0.0372954839146839
-0.09913294771593063
-0.27569257363904265
-0.15599206667660442
-0.26914477022547734
0.020714996910390762
0.13801860576771913
0.12348118337093857
0.10751251067381534
0.11198875727337805
0.09387323813898649
0.06750049668392395
0.07027490312184048
0.027608982646979533
0.07124039297227099
0.07816241191419837
-0.004020159855591293
-0.0890919843395148
-0.049996884666698986
-0.0738065528987837
-0.15909935509980258
-0.1259540479728318
-0.06399438204759625
-0.14156827647288053
0.01696656928959929
0.21005761134094833
0.06121537102563234
0.23403116393234696
-0.10302226650559933
-0.30620259101656777
-0.31127046088692
-0.124889062742648
0.15772839511845493
-0.0031563664158745044
0.27107217813349554
0.2381636338443987
0.20266157427284356
-0.06166859153968598
0.06945411922296262
0.0022659578308053567
0.004779755632740351
-0.019879411177089936
0.06145120876518263
-0.028114393425171153
0.007581217464597668
-0.14740264121072455
-0.10863154619111541
-0.06655462333905526
-0.06035059196935379
0.04894972710420317
0.08986169730213812
0.05232541619790269
0.09854942945015241
-0.014961874949811924
0.18650471140333683
0.2525922525078929
-0.23443516424929606
-0.2569489274800406
-0.205447176798178
0.04658666066733036
0.19280111494178132
0.12234644611427266
0.2369315299145525
0.22802862660124906
0.21855021436236038
0.10636042264220065
0.02860721073224987
-0.005618747516103222
-0.09833769360989666
0.004925077073216159
-0.03921599897392635
-0.02148820833611016
-0.15455038025379733
-0.11160681442185995
-0.08288741607579593
-0.08767523705910882
0.0011047020718536957
0.021741487333063775
0.1294443353457987
0.016827978479909907
-0.010719444819299356
-0.07285631259039377
-0.1884910192095902
0.1202370389379575
-0.32407847111986954
-0.054957332970972
-0.24105266069188377
0.2264772338585654
0.15672624367321128
0.27342765394232527
0.214947953562806
0.02364188472358846
0.05675817842330473
0.022245952355151897
0.007950043898169369
-0.029875537005518912
-0.15866579199543723
-0.08894025164469908
0.052257792486635944
-0.03438116955165927
-0.12959415933315838
-0.1679404136291113
-0.10559357701458306
-0.03574984888521156
0.08003493365200437
-0.007291537986494189
0.15019116567551014
-0.00665167509003338
-0.25717265537145917
-0.16187773575761044
-0.130153731571867
-0.06573579420946032
-0.41143247473544325
-0.11957758435361578
-0.0932560714390847
0.14703857257371256
0.11778791018732987
0.06342944073040802
0.24407956270792983
0.19558217204815306
-0.021702101171564087
0.06952639643551241
0.03063960940974377
0.13626700748388934
-0.004422551947782569
0.03146877100740448
-0.05042453993582414
0.055088716254928775
-0.02826882681056581
-0.07727786478846743
-0.07506393677112508
0.0006273413440218462
-0.10499630840843385
0.12417360201944391
0.15214305829564906
-0.05212523046615594
-0.13988571496553404
-0.29343270402418203
-0.2957031867961753
-0.1900239057600654
-0.21356256414541563
-0.2553490548659972
0.021937941634524245
0.042340794372124464
0.14093377147080904
0.005156276129638191
0.2688533371586007
0.05919069060408087
-0.06299335748361339
0.10429984784208271
0.06772081938214977
-0.05506665284303966
0.05054008454497009
0.044397066046614586
-0.020877684810084375
-0.022743395254473272
0.04149171240276883
-0.0897033759625105
-0.04805523926098053
-0.1615544093600863
-0.03068324104093353
-0.082729263757972
-0.004267152780543518
-0.011420945150169205
-0.25916726031753945
-0.14759537906215553
0.0020545296920652122
-0.20002870632841646
-0.08087010400139412
0.0237159066942153
0.11331946496164706
-0.13169232563893607
0.05226458530486929
-0.15714015344388615
-0.04173170022713516
-0.11549114591226302
-0.036237767315220513
-0.0956338101725977
0.10818783765501909
-0.02164762768941278
0.05198271465110122
0.07949818261975637
0.06928684791861803
0.11793421621893527
-0.12443413671865994
-0.04235212249753648
-0.2382976703174367
-0.03131250090318703
0.0459689823576275
-0.10314289594975416
-0.05774092594352574
-0.07793579192220854
-0.19774456263074275
0.051301259483492
0.11416129502311106
-0.054463182238710266
-0.1613382495148525
0.17160404670545382
-0.0732062669373145
-0.10988252149223839
-0.21456562633091972
-0.16292890527194714
-0.1166809141696304
-0.26508912222737185
0.011349952106003019
0.012705408724043537
0.014924084836914648
-0.06526611529790159
-0.039162605514746665
-0.08490934786442647
-0.0972218806007033
0.029924059223308593
-0.06403232547072656
-0.01819011145094425
0.06337252074699243
-0.16573252907628688
-0.26794507053757866
-0.09379428069011257
-0.15935681368714238
-0.09971553094611545
-0.0312217075044217
0.09174331614965402
-0.10902037904905536
-0.15807415833610497
0.04240115272620466
0.0782119927223657
-0.08070083054138939
-0.10226215550965283
-0.11179857060285901
-0.31468477857912464
-0.4050030802086728
-0.23219536957569933
-0.11235202795942294
-0.04840041906580475
-0.001051034352415638
-0.04781754602011431
-0.038173337471994404
-0.0008403313766357186
-0.08530536444209645
0.09778680868972167
0.07353514864195794
-0.06301109468638601
-0.0008007328215542936
-0.034269318553056594
-0.20183859507164387
-0.08411248071574969
-0.18907288490968863
-0.11743492767888458
0.03926472022144214
0.06568215621511747
-0.22289581224012972
-0.0895527821818237
-0.08785104827490357
0.030203087836246634
0.08504134239974305
0.23047721421246692
0.003451211100408502
-0.022337044913825144
-0.10857051529223315
-0.17775203731429862
-0.16352458351985552
-0.05433469449875725
0.03072754912521256
-0.0373413456123512
0.08629360387744629
-0.01759065175571802
-0.04886665806818325
-0.015605077168723266
0.06523384350332216
-0.020293100018300113
0.0654299996287286
0.07871864657776415
-0.006429769455828352
-0.07994848907685917
0.20742782009897587
0.16860557632759848
0.11014768955274667
0.16028127772736203
-0.00507410560394244
-0.1413215628713579
-0.09701632313664783
0.023160968317668285
0.22931757633091343
0.07634213148398793
-0.07470619709601696
-0.1934489234179455
-0.1519965618129757
-0.14111516735698415
-0.047055979655265805
0.07575909618163489
-0.016792166846120882
0.028721754082837635
0.026354585151732956
-0.014084663037132784
0.007929137869950155
-0.08265114836455266
-0.03928213162472476
0.11161372305110047
0.16452058804541228
0.07233828630571551
-0.1378102289204134
-0.09299900066588301
-0.20276846447430308
0.0902848242111143
-0.20092465096372247
-0.16492607666354503
-0.18682047244815222
0.05174138131944605
-0.19795443561980736
-0.0881868832176118
-0.09119970728841281
-0.07935669707375487
-0.15869566087036857
-0.0975493404673171
-0.05714324464451549
0.03908844009175584
-0.18759761316501786
-0.013317884086597091
0.07075769078313998
-0.0332820681668067
-0.018650962493908928
0.06042385748725357
-0.03629962501536032
-0.030259469283139426
-0.11303403781179157
0.04952895189752033
0.039451449710771205
0.043300618208950446
0.027662937776333097
0.13394996797275815
-0.1761216874911382
-0.14832870646509128
-0.20043441967812967
-0.2699753907651676
-0.004659741203105224
-0.021874194570167368
-0.19279023200177706
-0.02275956156539807
-0.1221917903770639
-0.007611770603720526
-0.07953163347821969
-0.08211072524144494
-0.0010859330168811307
-0.006731380433342703
-0.013229455337005633
0.014026093941793804
-0.039316541254492306
-0.016323345361671748
0.0032595570499520704
-0.020097636661138375
0.009953267114274886
0.012791250481676123
-0.017383863875388986
0.04157997984541106
-0.028323556097108123
-0.021904480465832384
0.08496750074432254
0.010054834341778682
0.001767678280933828
0.07202588427682338
-0.003934483156834743
-0.09291353835411828
-0.0173211695667961
-0.05063394259241098
-0.15737262054542944
-0.07861308300653091
0.05609491905500539
-0.05781925912633859
-0.021533285275714867
-0.01783210990267899
-3.274305202925897e-05
-0.01073270034985459
0.10290997805258377
-0.0711307719940328
-0.06173537970486339
0.09580149644071177
-0.0735476565953706
-0.024785481403122256
0.04360492821984722
0.07441115071316483
0.04397696497268663
0.10305414621891004
0.027038987827500204
0.07729239003249079
-0.048210211017498485
-0.055050378572585525
-0.011415381398183119
-0.06788425141570556
0.04085277877220467
-0.027453233917360303
0.03691942120729076
0.06552097782203818
0.014087127721781731
-0.021278390760103107
-0.009900592669522553
0.020511421394530265
0.025585287701441996
-0.033552885975250614
0.0010265097689990306
-0.06942545705236403
-0.03641257954535375
-0.01530097775099462
0.1262008245163736
-0.010585512465935908
-0.08232332262703553
0.09276288567335784
0.0037180016137769493
0.04433824086616863
0.027493772011410438
0.003650277848217783
0.16726371315092778
0.06405155052907092
-0.07009977387828949
-0.08334248775824965
0.01941213804015337
-0.03886077708011393
-0.02359065174155203
0.028867238632796274
-0.03311257687277388
-0.07423263834575963
0.047630459778516036
0.08923000028511985
0.009424524570944686
0.04062163697181112
0.09148954657342075
0.022233496994680003
0.03174746445315326
-0.07863325676020004
0.0032442587034190074
-0.01104332436526928
0.052188549950592654
-0.06449043632956684
0.09529483827687443
0.08842382668298085
-0.06336434204188209
-0.048723619206369216
-0.015575940553747952
0.12539357854857908
-0.10646089894037793
-0.08518178091057445
0.0943298913100631
-0.01039775316677458
-0.000835281316827148
-0.07542392395791704
0.06561175922563552
-0.08747302303536683
-0.07287044151260966
0.01639354567375252
0.09931603102737303
0.1323015010527577
-0.005973099532520384
0.18212103349591147
0.04230586746409561
0.06755001523354184
-0.05150853396163757
-0.04855883915523696
-0.009858915588824716
0.14827433325651104
0.10254515034947663
0.010464062500808759
0.05278990827678395
-0.03748974617776953
-0.05576444030799899
-0.037405245212299064
0.03756852598179763
0.1493621140734558
0.0916766779385685
0.046838340675978404
0.041864756066687256
0.1656068595474498
0.08143295542508669
0.15868470586054986
0.060095135842867284
0.04697956960175772
0.0025040566002720406
0.060368062779574135
0.24369023997022154
0.2216897370137806
0.22853078179064773
0.23869501835693946
0.08674809262861806
0.09755393091803158
0.14776116410336324
0.06936638458131195
-0.004631546003541998
-0.02634084679168177
-0.03837711975926406
-0.01229458757924914
0.06334327370951022
0.0008490885523312349
0.0017246666533723997
0.0235896857849681
-0.013324515451603304
0.04633130983396387
0.023006919544342877
0.05657499895544516
0.05057702509142724
0.12464697867708723
0.10689329261777748
0.046064586942812236
0.09934996511270708
-0.17329988935676657
-0.1605790685848457
-0.17423195012673343
0.08885451610369052
0.09244090869960701
0.18847794294312836
0.14416241700285692
0.19828550871327896
0.2621976531509042
0.31388159679497507
0.2750201995938885
0.14286593856892504
0.07437400469491191
-0.09530577555132222
0.04909243795848041
-0.024091752457280593
0.012004884679844301
0.17752738881877675
-0.00782559931363937
0.15873841661178337
0.1329480965348924
-0.0122778614614972
0.019294093477403948
0.11878062625141747
0.04265818724221325
-0.004404046449820686
0.062269258811155866
-0.12000643367862728
-0.07825271756730609
-0.12436324302011263
-0.03320261530720735
-0.15424495170350508
0.1800022163921592
0.05554074724325566
-0.07640970284591969
-0.045164431580252525
0.19549625194663003
0.036238823019097255
0.16168380971020804
0.05257649664704825
-0.10456055743372861
-0.06598129707317282
-0.12699985291707766
0.006627966059575551
-0.11330879088505505
0.11680457323967933
-0.04843408217457121
0.025964201629514225
0.05071642052944186
-0.25336557954698946
-0.1903053620051491
-0.06986609604784104
-0.11957879249471337
-0.17419400658350712
-0.17773612025828278
-0.14587790861042144
0.3052257856884067
-0.1040604436852581
-0.01824742820822976
-0.10956391365396081
-0.3556029149143491
-0.08785653534595347
0.2025495197952357
0.1162269182644092
-0.1033301049853271
-0.10534943394470751
-0.09885979665560365
-0.03860591920399184
-0.13482624342721222
-0.12203688705568815
-0.0042524605815922436
-0.01188631148804309
-0.07957425699126962
0.07758206941535324
-0.18598232813332546
-0.09502128834383536
-0.17710600348776406
-0.24459993378298447
0.008432160814169877
0.07174234407079916
-0.09986348794899046
-0.10537044104747305
-0.12327189940762921
-0.05600481299006547
0.07439548665730562
0.1239140295327215
0.12681375477794138
0.17645024645491553
0.14239036633166627
-0.11982718222306897
-0.013976073506574186
0.030785098657892567
-0.12886947557855882
-0.033033915086306945
-0.07187778672449728
-0.18097620604792525
-0.3122911161984083
-0.25887966548699815
-0.1301101473841163
-0.06576340530795532
0.025105905194746432
0.07701397327804295
0.10593072581877021
0.014833335671282387
0.14778134136543467
-0.1089777222052601
-0.07678876380788677
0.007825518662363855
0.22943991797555333
-0.013191650301656465
-0.1601020726680709
-0.10213917684377437
0.02056876502170948
0.05406414929926026
-0.05127306227556645
0.2396750304247075
-0.002660703742450907
-0.014532305605958439
0.017974237086008003
-0.036012418346047986
-0.03798812623523054
-0.1552232210817303
0.0024299178469270443
-0.18441587144311664
-0.24768952071015543
-0.3814454479783657
-0.055926886249550715
-0.13454497955256287
-0.0020447150719687984
-0.008249688948126029
-0.0983739851417132
-0.08374745488644539
0.02721107169941002
-0.12909762171407743
0.012050639124255982
0.07087713611599988
0.22305292506646135
0.23312202810303684
0.02725626704954896
-0.05869192148175823
-0.09519501567843983
-0.003721381647538929
0.12613648276646072
0.2592234928908848
0.028925635811676863
-0.014725562492611326
-0.10100670709130091
-0.12329457689174837
-0.2436334075346069
-0.13523453304248664
0.0565471308787528
-0.2549190410145777
-0.5307680236289057
-0.48440104223003555
-0.24347633202262245
0.005300315073269852
-0.011234405364469508
0.09432663064465818
0.04676420047658682
0.025109214342100717
-0.10340965880514504
0.3786690546675126
0.041047351918456064
0.13644861122612784
-0.019850082164224417
0.13870224977847126
0.05485579089841207
0.3770808021948605
0.11374897682248539
0.038437356515746465
0.11795886411111735
0.15448103737082305
0.158294795103033
0.21929578660016028
0.09508812144528052
0.031058436792512124
0.06868811748223291
-0.1960948895798599
0.05832762926521611
-0.2092586810434876
-0.718868977508459
-0.832636253217491
-0.1757842761496046
-0.025813099495245292
-0.08257845157705061
0.051876677012533574
0.022039271252201943
-0.09822286010178759
0.15271205226589854
0.2653841987328193
-0.040433133067222016
0.003316710432885757
-0.029970702298935312
0.11848704870958697
0.07210404886387958
0.09383773716833926
0.16253055088677051
-0.10359334683003811
0.1262676466122079
0.3799825054167788
0.31962540467642825
0.024456121492139105
0.27916909471382684
0.11358780290635967
-0.1642165262484343
-0.37212339339329414
-0.16352485931526214
-0.42772893122780387
-0.8898602720352528
-0.753424972958742
-0.15527548158838755
0.0806459745931539
0.01741031805729729
-0.06108523680083109
-0.024235130346943006
-0.03493796557545164
0.1580115499272574
0.24391079115803715
0.23531182515083285
0.030829559860661937
0.2529960826944562
0.343073828458736
0.15702689450495017
-0.018711817745226074
-0.17871161349735315
-0.4249849739696971
-0.14424020252138597
-0.0286985496494344
0.22232179519979203
-0.09148306668813205
0.15924679092717106
0.2804295780563621
0.28996287340021404
0.09222855145782172
0.048409235597086125
-0.25374344191080755
-0.46564957837924675
-0.4669976688895844
-0.3110528021940035
-0.06714098790094314
-0.13581325247193135
-0.08715952508898507
0.05258638483509187
0.018324227899442467
0.03907470955898424
0.03764913081920428
0.11555484254022956
0.05420853681407796
-0.1894021158332367
0.028283935832665436
-0.28503875856301586
-0.23581467224638333
-0.3613985106040106
-0.17616684920025447
-0.09950867308501317
0.31508387615662303
0.21807036743733413
0.33432896884711544
0.22108841079096486
0.4446234457681253
0.5849388419012476
0.6290726013812079
0.44605205166447587
0.23462348814764586
0.060632774793340914
-0.05178564545035633
-0.053253440804704934
0.08743599545610341
0.07639166408383323
-0.0002056117136940547
-0.07084098578460395
0.05904126145575909
-0.01958172976382403
0.008259144844822005
-0.12762802756568242
-0.22222924660431323
-0.03942122596514956
-0.20487863556896313
-0.14632448571915244
-0.34873998909767895
-0.13713263158341854
0.04757945532836416
0.08102715979318213
0.2643981893454948
0.25191641063335574
0.258327256622405
0.2428980370057076
0.07770399677474805
0.37084633587731025
0.35246706457488103
0.18755782072632604
0.12065049311368449
0.2268918210879254
-0.0055716307803604665
0.029200512194628107
-0.05319952591397441
0.24484560703387895
0.016647566053730987
-0.050726477549881126
-0.04460046419641604
-0.09873254071258603
-0.19276589068802283
-0.05531611933912867
-0.1395433828261495
-0.2535551152512199
-0.06423994310030548
0.13101070562239442
0.2208183419823602
0.07836279058064545
0.22171336523437735
0.08306865274886406
0.0908252066812357
0.08425248810288956
0.08077117110819729
0.12390460928334152
0.0974173124333815
-0.034990860412270106
-0.10963800410781006
-0.1075220798790188
-0.025683341594286504
0.06930835404343791
0.10084204969643296
0.06500826465514105
-0.09733141981571515
0.030364266980838595
-0.10060984942827739
0.06603422139249218
0.13237075564750553
-0.09172161596666338
-0.31783220656745415
-0.12744312534640895
0.054248838821828856
0.2561411545310793
0.17412706862892488
-0.022183436028282787
0.17931697246369854
-0.04366761923387441
-0.22678907068450568
0.05085888325086067
0.09269687579138014
0.16199950380815975
0.3553095377135258
0.03411367765907927
-0.25891408386799913
-0.22394766178492317
-0.4161854241505193
-0.21155112810883378
-0.31504553939588487
-0.022255506927079075
0.09151563576034638
-0.031203427632650875
0.02165525196224623
0.0011472950772069656
0.02054175840014674
0.0964742667402389
0.09701762943352049
-0.15942077181663328
-0.3997143325345838
-0.04585971800444386
0.5737486033170018
0.9779283621041426
1.1622651838450044
0.47601289067467134
0.16958584770919116
-0.031904922239642856
-0.26108268504611487
0.003719963945689102
0.05578383276900317
0.11218207424610539
-0.08215142621753654
-0.20077109918073932
-0.14577259777482499
-0.2706024446537168
-0.5481185573796195
-0.1728096447103655
-0.12596043502405124
0.10674965167077151
0.14268381811513545
0.1234158622001166
-0.008939721738274125
-0.024031507299278793
-0.09423967441814494
0.0378490526135255
-0.02804280227617231
-0.3348760310150367
-0.5583572903952334
-0.3056253562585513
0.38999409632009646
0.9304774980096084
1.1482239774603875
1.3142122529365903
1.20651509038645
0.85762761693397
0.7364270122866641
0.35485816885699634
0.10599903178800675
-0.11216186181801213
-0.05976538433386431
-0.20591505712998706
-0.15779164544346952
-0.2319342128851582
-0.18752800371349282
-0.10814839076028443
-0.18950196584900755
-0.06415770694229035
0.10791450807706086
-0.030169858192213933
0.0038199122697429827
0.0016087130918255304
-0.06699365116081853
-0.026195356143618065
-0.19743531632423092
-0.37008017960728773
-0.6127970183552088
-0.5934409835066721
-0.08748390263069117
0.08600605221761433
0.13202431300503156
0.4733700239430034
0.6783513701380097
0.8497526025929281
0.34006383255236877
-0.06469192701510973
-0.24659031853771707
-0.18581230541527605
-0.3349958898241048
-0.020637475704080997
-0.2302944902617151
-0.12227358586601879
-0.2963598590271606
-0.13851239429173962
-0.24784986325707775
-0.07380424127477292
0.058132430990852156
0.038076257293739875
-0.010157871211925212
0.018113229199193
-0.029297814306451314
0.011395565273650977
-0.164608946307165
-0.4518920663748518
-0.44778445557987395
-0.3990632447594229
-0.5035362668120436
-0.4689181697699768
-0.317758942590724
-0.19606032625867365
-0.19743956417969077
-0.13302593898651768
-0.06735978588085835
0.09141383546793676
-0.16373783102455927
-0.04224664967538022
0.06435041157516633
0.019967988515881902
-0.0011306426131431789
0.13898317619237452
0.02235779503649243
-0.11302257282893603
-0.23900615966692812
-0.08480311001375214
-0.008729851556135634
-0.03198075766938069
-0.015332283040272633
0.1441330242005887
-0.009239457323154435
-0.010226463196623986
-0.14945491686124682
-0.23884138884953063
-0.25833998869436936
-0.1794462835268391
-0.17019459698151737
-0.25800687494984326
-0.08869399309418893
-0.3323555375992201
-0.152720290676404
-0.0909111570688787
-0.2457045883878203
0.05125646338053977
-0.020264744025477816
0.11633249103579851
-0.13732450420604084
-0.10729091156952646
-0.014741921125274038
0.1670315759075069
0.15065012381469628
-0.19444491716489623
-0.18935372343559873
-0.06994856408659417
0.11587335821032196
-0.025214640959311297
-0.15530358981092546
0.07127434499720929
-0.0436851212314943
-0.03849516771006391
-0.0980172017625202
-0.3045830341372924
-0.30346566087026755
-0.16076688859767962
-0.10476617192006157
-0.3097186946115497
-0.04272579066831518
-0.2103764256925784
-0.31906865011302393
-0.19985780072028816
-0.015602677265776235
-0.12824893645946506
-0.08722662524084572
0.06389993422029404
4.026690200715824e-05
-0.09670126444587189
0.05990515441750951
-0.28934657919943346
0.03748840251876918
-0.181128484187036
0.12727869030677483
0.12023314684091793
0.08898457533333817
-0.04973076140312644
-0.030769360343303954
-0.02871329037412696
-0.09018602404113048
-0.05837696421917498
0.05160060363443392
-0.15872611020520713
-0.003927604704066734
-0.03871977430906312
-0.0714337613247852
-0.05999930071930816
-0.1762260488209846
0.022583910249142743
-0.20912306550907875
-0.02502989427219771
-0.08751059603081128
-0.004448350155500422
-0.18159153183774404
-0.06979496460997221
-0.11012708185704527
-0.15111673421519028
-0.29057204611242055
0.059719117094964386
0.13818983089071107
-0.1333727990274299
0.05919030729576858
0.04526880786111816
0.026867994591202374
-0.0233876387594702
-0.06128342843239835
-0.005812716272619399
-0.01820264631023035
0.028510361781322973
-0.08947285563568451
-0.16909400040628428
-0.11400142766146187
0.1577654019600821
0.1441491015839479
0.13207989342152152
-0.292101737486851
-0.20735822218485236
-0.06603924049741838
0.04206342695165927
0.2401384460233662
-0.0012662495918968253
-0.005432648092352266
0.005511690676307434
-0.23322494129074056
-0.11415022690303483
0.08192500085739898
0.05487110971517335
-0.077789252854179
0.10952897298991346
0.12758346910950175
0.09752557225986412
0.0244499159709618
-0.000917482526406604
0.06309541966769361
0.021863892660306743
-0.048182503642324875
0.07468471638022905
-0.09575317781725874
0.0016804525468089532
-0.07652364649196021
-0.09180181938311555
-0.11926452988452657
0.11880261249506958
-0.04932562257094589
-0.08750045443044017
0.08660668298553498
-0.018052145912481086
-0.021282157934851186
-0.08739126874907623
-0.10967054999599146
-0.06039007438903249
-0.08642749486751644
0.014627892029783061
0.1318181464960365
0.1131825081877331
0.11864794524987617
0.09853003067800531
0.0193239713163077
0.03608499675599826
-0.03881968196241194
-0.06713274126601519
0.028264939429822312
-0.0027180375212389725
0.07836089800308026
-0.040538271193742134
0.12243585582046065
-0.027966584417054095
-0.009615714120351913
0.029695003320647655
0.00560990427270617
0.053769849467294205
0.1663408053026774
0.05217280716811858
-0.09769080258477056
-0.13187632350759895
-0.10014237670512836
0.01957883366377562
-0.06697772029351388
-0.07831736051279768
0.03887929706152397
0.17471499613719718
-0.06837706873918836
0.012227076222991016
-0.09460419695138537
-0.03730707297357469
0.01592551995417298
-0.06105156808119968
0.09517594050568368
0.017924403274628922
0.06948681155867513
0.004708685916072653
-0.046063245533448344
-0.03635176165473876
0.016059886439165314
-0.10974019949297045
0.007801540106927372
-0.08115221030362474
0.06162979668929352
0.04010071589988185
0.21155609749001206
0.21021455730612826
-0.09611396494550012
0.02501591929562413
-0.04546484289699034
0.027183031461141
0.008959762538442568
-0.15857747130557692
0.07025399166552283
-0.1075819631716283
-0.022702955626270643
-0.04481190329965709
-0.06200231232929334
-0.07481305280753346
0.13617031505842703
-0.015204919888675821
0.0127460102001271
0.047904143461001684
-0.04638125386025661
0.0028843993613692272
0.029466264243885144
-0.00592119543109421
-0.004621476124550076
-0.0032463432299060005
0.09204085689305522
0.02487927166926095
-0.0027827323438547485
0.030440417605357786
-0.06869974494990319
0.03220682186343873
0.05114959395445322
0.10326693398390945
-0.02997168369514889
-0.06553952705174475
0.06025671956467923
0.07938902301338786
0.024566704699754395
-0.0005704618664655684
-0.045004533661584814
0.08686862139439804
0.0649827352365954
-0.062378411449089614
0.0020440808904185455
0.04780604740477335
0.04662101926619014
-0.07176714623462678
-0.022130102830093243
-0.05472462292424726
0.059065404323462835
0.044750132308169134
-0.15039925701452647
0.051781118456557265
-0.07816502450232979
-0.07649075194489331
-0.07171796015430325
0.12971805440297937
-0.09702409170004711
0.03803850692766112
-0.00914628472961785
0.0352324870978422
0.09611087009613203
0.13902281442490758
-0.0035763230705412475
-0.08887504235105452
0.12884602199526543
-0.06732490982838861
0.10797678747580537
-0.07881700569016271
-0.14737785351090973
-0.11087644461552786
-0.02821851841968901
0.00875648514690831
0.17915319849747427
0.014958585753995841
0.09909889509143684
-0.1189767067029033
0.04306483159868045
0.11213077192805468
-0.04302251087645383
0.024733527265753157
-0.02960525866606092
0.03851976232900408
0.06244002741103371
-0.07481082929821209
-0.06951284325703522
0.03641304960691594
0.08271089688838372
0.09308643834080178
0.11224441762145786
-0.09368520781728087
0.0531737589500444
0.040106887733780884
0.014938849933118772
-0.05417904538938109
0.12401256727505017
0.012873846629448312
-0.03117974469665203
-0.15704568025802432
0.08020235959345826
-0.0755667489053205
0.041662344061459265
-0.017757143844107582
-0.02636805495412608
-0.067101837171903
-0.2145864765077877
-0.02280366106043877
0.013827120572080642
0.0014807314054340614
0.056325521852033766
-0.024634087720753706
0.02546211732626893
-0.04541588829926459
0.03286114239185955
0.07134241689902579
0.07988227840121416
0.16083179064764017
0.0536157179899335
0.022839073003979526
-0.0056867598160159315
-0.03837268835127448
0.05634384113128638
0.0538773328468993
-0.009444158431420789
0.05944453148103679
-0.0030192666582841577
0.05618806294322833
0.08650426019807657
0.020355234557383264
0.03442200970858173
-0.0029505957802848574
0.043495564650512256
0.048546888939751155
-0.05994403105113631
-0.018288517543743162
0.002723238354138084
-0.0841325251577377
0.09898629629645729
0.06216645534516247
0.0056673643927211345
0.10705926994678298
0.16507505211382992
0.1896300300612874
0.14336062245802458
0.23802228825996527
0.20139276446843715
0.12846200932465018
-0.10497056853567294
0.062400294441385326
-0.04750299749116554
-0.05236062350284531
-0.027215175607063078
-0.05345349987487911
0.038414867109853416
0.00652119554157634
0.14318919379089778
-0.03775228482347896
0.019030467637173053
0.026864780133644777
0.01967821962670616
0.0029578264185755134
0.00820685256971181
-0.0905973695926748
0.07693929061264501
0.02721972079832735
-0.013438296874266457
-0.023022467479684623
0.019510488555562873
0.0446542725894942
0.10630638078461974
0.12821506431121302
0.09365159807914444
0.13674951105042527
-0.014075448256489043
-0.17059547078995457
-0.12212753282160237
-0.048107409005762436
-0.1448393658143707
-0.16502240951659158
-0.12043418373066027
-0.13950470592618935
-0.27680796768216975
-0.07983973758564561
-0.08472090551311723
-0.08657781658210977
0.0372984600145093
-0.03573232510907159
-0.016329035305098022
0.12079179545902845
0.007103804665594626
0.0848422495175715
-0.08378206236259278
0.025654517092948713
-0.0076065027422033814
0.03622667896596557
-0.013483592235899707
0.2704029785315555
0.1405076366127096
0.330622841682763
0.34296171494172456
0.3337085582251438
0.06711872963217357
-0.11680045373468294
0.009880851493595083
0.23893998606569175
0.45053442946947664
0.22315714781298845
0.2793947533159887
0.27503230004328016
0.17593224647105063
-0.12422147604755823
-0.07636794228299318
-0.05549234159771981
-0.0019604700657436065
0.03452540490242707
0.09018438473396087
0.0013549302388815077
0.08876203853228051
-0.03610554067916251
-0.011195758807534024
-0.05108898049579062
-0.04080302407957115
0.028974222103695144
0.13602537323588332
0.2153508365694836
0.2888498982234943
0.20169703496488994
-0.05278461175117976
-0.054622085155582215
0.06888357906041699
-0.0975253765750787
0.10389502245323884
0.06810080253964454
0.00446064157939456
0.051690658339721016
-0.06603173084683475
0.033921228805723395
0.0865725087889276
0.09657786852565137
0.008986328717069652
-0.10904801646489311
-0.1279788198451183
0.05180891848848027
0.019360999782914206
0.0035770465488255917
-0.00025605719359428797
-0.004793872630574441
-0.14003381626955555
0.032039165016257885
-0.11308917250294706
-0.10406895423772247
0.1514122012327187
0.45352914304783565
0.34915326867067725
0.01060372481609096
0.01771842886089968
-0.13993781906565445
-0.014762754850753955
-0.1070227533889117
0.034973308279400886
-0.07543275698333322
-0.08802691643386393
0.07783895576062194
-0.03274496916584987
-0.2112689291671834
0.06474455516495059
0.0246392528262313
0.0472634780580176
-0.05676963161869095
-0.024598239989038092
-0.05609547914020026
0.0523334269638121
0.09072516909042973
-0.03881238866244441
-0.06572299618176031
-0.10672458000368275
-0.10318740741567119
0.03330476070909271
-0.02922592961882226
-0.12908616046443933
0.06739887727890073
0.14356622458216375
0.23988108449626439
0.16498519805317235
-0.05116588895165351
0.2289316045490149
0.04626230902880426
0.0943738003155387
-0.15115541542854669
-0.2398856850672638
-0.17012186069346777
-0.18395432308616508
-0.2230890408966143
0.035526013889813184
-0.02783635941443053
-0.054125519588266086
-0.0754758863041791
0.0725113131640544
-0.06982555998613812
0.09377953404558578
0.05674858343771944
0.07294554236811542
0.14443207002000466
-0.13012930852059
-0.02356290765655697
-0.028987521414966508
0.013667110903698076
-0.02173373311195347
0.15754976637658633
0.19159568094008358
0.2120014635474926
0.30202898735117784
0.12360913756464202
0.047196344154384166
-0.1328156523525107
-0.2292497302032452
-0.1578817036964137
-0.18089120351995763
-0.18013312710186805
-0.22776529461934666
-0.03514543900538892
-0.17148903199486276
0.014842203677681243
-0.02228699610568873
-0.17004306308932732
-0.13917926051863783
-0.0022333162284555318
-0.07592051131629192
-0.06430001611076551
0.055772809624383586
-0.02110650000605287
-0.051199285220376874
-0.15497157501257947
-0.00936985726955462
-0.055481672633177256
-0.042321064913513624
0.24392382453898337
0.25442583679262665
0.15103079919255513
0.058202801557012525
0.00918791934677446
-0.438293004401739
-0.30576036683912694
-0.4277278488535832
-0.45155267775139013
-0.1811705175537972
-0.1905236721435056
-0.2686583910610785
-0.20228215273678515
-0.3336210890389655
-0.05428522149747894
0.15346330072440606
-0.01538236669550054
-0.2412931509450031
-0.14937750197708508
0.14095267632414518
-0.1392891420527528
-0.05767412152387279
-0.06813800892858118
-0.08050712787887304
-0.15706506320561886
-0.028097347632110827
0.02262544451503257
-0.06052180623689099
0.07424587291903763
0.22967835774760745
0.16066654363179875
0.08631226389823439
-0.10078169798686494
-0.6274203317850745
-0.5305921363447877
-0.2738707604171613
-0.10357248175552888
-0.32448481882814867
-0.43943349484463906
-0.4796429579999603
-0.024458267314688423
-0.2582133836451577
-0.02654797172721049
0.026430460560758876
0.09439111988433493
-0.11031903390746832
-0.10535525848233454
0.04017199337184732
0.08301585488964626
-0.04823034817184076
-0.08296363613538896
-0.10526185257887262
-0.13540440038191776
-0.23234323512156133
-0.12400629666049587
-0.13449609872949134
-0.011794141219503144
-0.09960755369087874
0.2760859331522079
0.17770487448810568
0.06674816413222268
-0.1935992738752053
-0.3537748814987649
-0.13305397612162395
0.0016689726474416727
-0.09871383095997048
-0.17409379473595604
-0.03573185206955462
0.010540061444987764
0.13684790794633112
0.00203264591842602
0.11740824883361665
0.09521220798085805
0.04966162966162941
-0.030176042789172502
-0.1553610753290356
0.062220138485444956
-0.055414482158721905
-0.058112047900883076
-0.07732178848895442
-0.3346466980448609
-0.19453920099614022
-0.004220244315230336
0.03947625620047666
0.18361307317239497
0.17444671513492005
0.251691408668172
0.35792311048545294
0.16082084643061353
0.023449254132489338
0.027592336064233624
0.11642842092924
0.08215159333322337
0.4027484130330358
0.04083071628799145
0.1088846617416177
-0.15856324147693548
0.03963432500857351
0.15484259305547765
0.23400281242699525
0.12140215155039599
0.03958656261749485
0.04287789221235588
0.042210404065145125
-0.016237478682134706
-0.022005662176873532
-0.032002183085665846
-0.02577325154761343
-0.10873173980915185
-0.0733352027968107
-0.006770539723459396
0.2719734657316363
0.273177808886232
0.0672426270014663
0.27026197180396355
0.47678745926026156
0.18979324791458346
0.17618126543886267
0.04027782379636264
0.18641747246453405
0.41990342830278116
0.3474621532945613
0.16101950158306788
-0.0882710414378907
-0.07517534770578428
-0.1775544439165831
-0.12965398789068683
-0.00422812471806911
0.05726903096686508
0.06705293502512435
-0.010953761091165805
0.05480193479626709
0.06738199741328703
0.06814371866373184
0.12725177225275658
0.016899064052141734
0.021674172721682827
-0.249106179621433
-0.15370309387592762
-0.12350235682384829
0.009019689981563939
0.1645223098749555
0.2644571185487741
0.16980937327169937
0.1653344046582334
0.21319239410022006
0.026422553958101426
0.07194402207286439
0.25262030093371785
0.25068025055036325
0.18501220353074024
-0.0169696790202343
-0.05800080084606284
-0.002221161628510921
0.12357974872024334
0.1377599161940732
0.1571549170730645
0.16201985659207588
0.13917227826889061
0.0966152727787547
0.026599584590134874
-0.03089848832043142
0.051830992581674486
0.16050638801880732
-0.07911429746550788
-0.06644554025591813
-0.118592834663202
-0.18733966572608016
-0.4004603776103368
0.20214947474119702
0.22735843302006642
0.35193602877795566
0.21166220353641915
0.2821441104190924
0.0932900090259017
0.3236303356768615
0.2028338808420493
0.14375987406618168
0.040316205404795386
-0.008869397799253732
0.1263650357843077
0.02598424831884839
0.3385599376541555
0.32854552331103254
0.45073964480709505
0.28609755201685305
-0.016167870594624295
-0.11041985401899931
-0.0384550544452094
0.017316468791141695
-0.0024279300394176146
0.08121719361580011
0.006053325361512246
0.14558662190192678
-0.12464294833992579
-0.17901803364959604
-0.1895698953244138
0.0835162510409381
0.38518775125582605
0.27861226854966187
0.32345629214310956
-0.13611797729333283
-0.059747512829888855
-0.0864160796592603
0.07911018869576066
-0.02830963024270663
-0.020666397937953624
0.04583982366538802
0.05883939770133925
0.19841515128673465
0.33335759239142354
0.46261985507503844
0.36652350506666936
0.19753838195592424
0.0989734181668916
0.1007711326931641
0.10698878390623386
0.034757865462376934
0.028056708034441234
0.06382826333816018
0.1501557220575657
0.2076645007916151
0.0572274589067448
-0.0494859052909422
-0.07851614463680173
-0.08462286420255187
-0.013169608259940334
0.028079402755861387
-0.02481233059356742
-0.1271076115928711
-0.32635946130088317
-0.28773092000752143
-0.10156458909694918
-0.1457660648755874
-0.06369647041550026
0.12772752354175398
0.006764193037674876
0.2134366618911456
0.4362865657558321
0.44297704331672455
0.4332904663116361
0.1511537100192047
-0.12194674159140542
-0.11346683965064777
0.0735918139794323
-0.10167052747346592
0.009204751344064642
0.03182753322599356
0.27168899235642063
0.12092038383958335
0.10808803748428632
0.09209692976486217
0.13559004121678447
-0.2438453108955058
-0.33259274626842505
-0.17498744329849633
-0.15476311518429642
-0.35450684526487003
-0.29494607171055043
-0.13600248405934012
-0.06677827695041795
-0.11188384683161796
0.16622608678889284
-0.14185752791359832
0.11137190078069459
0.47793894058761244
0.5030254285490577
0.3365043597075433
0.23668300149198412
-0.02784757509598819
-0.00993765009772219
0.015825264364570043
-0.04410442962126601
-0.08464480817065341
-0.03114130328902709
0.043269146644529424
0.2362085666412998
0.29597863898102733
0.24067331365024727
0.2705593252762314
-0.02898134375280891
0.010228099313913726
-0.034725777750432577
-0.07199546712294379
-0.004345497247958863
-0.04469727006396959
-0.21129737589864903
-0.0014481419812213485
0.1078124749394365
-0.07601992736489614
0.22848199388615104
0.052021734950016975
0.3681185369878773
0.584890059742365
0.558342784208563
0.4812346871045847
0.30132697651077306
0.12525684231193268
-0.05023178891363673
0.14946707995563988
0.04908530934489557
-0.053126151779491856
0.1639312452706681
0.1981360006415757
0.1812577078054178
0.16749399203535165
-0.0050689161381595755
0.17451911555393532
0.11863344472336976
0.0678627746052297
-0.079665192933002
0.02212252168783604
-0.0205874262038749
-0.059667245830102654
0.02509371958380215
-0.0011890146016460235
-0.0050360010756367235
0.11215137085820877
0.05194482356888992
0.28521961055183254
0.16637906240549347
0.37109859812486345
0.20331436543564177
0.22614016478144006
0.1016439667721012
-0.08270288328580852
-0.0014196900856648126
0.023421715197412443
-0.017755510292844813
-0.039882877734966814
0.14057680229613972
0.22951922122103377
0.17036755252136512
0.10829769102176781
0.11164254240835551
0.017972523631966043
0.18221553554497796
-0.03207335364063174
0.14425283957334964
0.27995798177692294
0.037904431462578055
-0.11142681029406139
0.02787827166878099
0.044951606154207825
0.10518499119593035
0.01365589663554456
0.3684950951784466
0.22711690036100204
0.1708530452443886
0.4749323123147944
0.2933422979262448
0.20212120679776371
0.0029908358080604743
-0.023250443481705976
0.025025555850735706
-0.009594242679426726
-0.10948555192388332
-0.018558388028182878
0.024609012044972525
-0.03045702311456593
0.0004103131713987689
-0.11968101807310158
0.0849712538522966
0.024847521534453482
0.20096886273409342
0.051995392317276345
0.15330441262191108
0.1943694737252708
0.08632165290381541
0.13796549631875513
0.4549782895022753
0.2188710771921859
0.15178604760722053
0.07170593611343605
0.39015792905607366
0.33003702771318333
0.2718700084364368
0.2662305944363763
0.14615859218662974
0.0985484783389632
0.024786170775115562
0.08422388189299923
-0.0693271943209469
-0.08477146882946567
-0.05798883154193024
-0.04632024864942582
0.07526626359219246
0.03769874612327012
-0.17364669245889233
-0.20497330683833057
-0.10452202863154317
0.001435804681904188
-0.10098788396173729
0.003273026851105173
0.0655736250113278
0.05758335144711855
0.14761737237105538
0.1756927614892373
0.19147037803101927
-0.0923172767234805
0.05770571106603684
-0.14992203894652706
0.14976425597506737
0.04079102598218426
-0.10140472347543793
0.0180145564897361
0.11091217066341205
-0.000358448527868645
0.03825734433827413
-0.014891754153650051
-0.07738751194235195
0.0375901719184462
-0.11771164423432692
-0.012459865295394034
-0.14271364364982403
0.037933542666804994
-0.06590539685426614
-0.15794465880167924
-0.02932677690784549
-0.11113450735853314
-0.22865948977977363
-0.08693591582835643
-0.1488649126821756
-0.12743600335479283
-0.29335522642932277
-0.24551801941991444
-0.2868895626873633
-0.29737530146434105
-0.2982401706073281
-0.16605379391807842
-0.01704341298260079
-0.29721477205862
-0.23407663940164114
-0.052167956707987156
-0.12156922620310225
0.01709977940243513
-0.07131953757199011
-0.027884486600530303
0.013085169562928099
0.008097214746671714
0.011454729003975435
0.010936674837809243
-0.0014762340354985035
-0.02924610692746146
-0.03622672809604236
-0.03115829940975602
0.09209893771933413
0.022763628803739524
0.14208881987802302
-0.02197255727607776
-0.1306847567593364
0.04988448492393813
-0.0305687479367663
-0.011098095578837586
-0.05140980757623459
-0.04131392089804218
-0.04255550012803349
-0.04102407480358348
-0.13491822469202785
-0.057185729577353565
-0.15794553622385482
0.011338234953747152
-0.1880904016505304
0.1334479538361841
-0.02041758992942386
0.01047331584987335
0.0454605730795332
0.013729600400952177
-0.02122915416128217
-0.02418718182381241
-0.06542381618947228
0.029419112326362715
0.06928121786544413
0.04567742548308602
-0.05841424103213785
-0.033468256629392755
0.06981539683142043
0.0717640280906128
0.06847591522733806
0.007730533074612404
0.06831355599280263
-0.010187381623689007
-0.13333732633231538
0.025866280470516603
0.011649421800451146
-0.16077033675387903
-0.03188980006716371
0.05213772452945798
0.06554008908538567
0.13065839149822805
0.04962403078819179
0.10055303029128858
-0.059982605748252676
0.09366641826712412
0.0076254770140639664
-0.044866676972843834
0.060635373261701535
0.039148419280071935
0.02587010031475233
0.02742053177525931
-0.05699075541106697
0.013495762448329288
0.18304238936947373
0.05038676804747028
0.1010069939004593
-0.019081310822216573
-0.05596132692792155
-0.018956859447665734
0.029159607067050536
-0.02116499411187777
-0.02214629598416595
-0.00018797743455350912
0.07098073073655327
0.01478157329009997
-0.10330065035134615
0.14217216623770168
-0.05925190160087143
0.08308549734568639
-0.025163353888370467
0.004641104056682315
-0.04902207419107464
0.03003823233223594
0.11689692768624692
0.07856021405913372
-0.006401948229463479
0.032355974868202866
0.01992237796662459
0.038181377754552014
-0.08440174447813271
0.012142655577649129
-0.005699998305668427
0.07060876463342075
0.065623629450005
0.012706998559936298
0.012641720219708892
-0.05028021046233172
0.07567353160817372
0.025909941190295854
0.013157130303903085
0.07842997501313693
-0.013406928276957619
-0.07556219576854897
-0.07045636072623424
-0.1610196534182989
-0.059522398954174494
-0.22524369530861765
0.009024772195095801
-0.09181554789546681
0.022488412942818153
-0.04465832440597454
-0.0930817955360596
-0.07922100827930499
-0.01649664626816562
0.01864722085252002
0.1290062758787761
0.10775915411551305
-0.19319362541338533
0.001970951537083428
0.022052779647616465
0.09391151851299527
0.024208768150106842
-0.013954437616334385
0.14705495823145462
0.07646969285773476
0.11630357096016539
0.056804809282093194
0.1555840721418635
0.11001505102560506
0.12660580953088738
-0.03279869899266189
0.18151299179105287
0.09727262057020493
0.0061940223841918385
0.03541230421547901
0.13329765126876625
-0.14900420701170253
-0.056019151604382464
-0.006984543680106582
-0.025517501219039236
0.09419934739215628
0.14357440411868821
-0.01583304897891157
0.0582008929286546
-0.23576472398489087
-0.003781556516771006
0.031128773501251795
-0.03749302602592219
0.01047070665999049
-0.01051688010489675
0.05116421986955461
-0.07794354048773214
-0.012303510642035656
0.02367566619921146
0.02246514445802554
0.089403871951315
0.23229134836970777
0.17636304809211356
0.23239906677495323
0.32195096872440493
0.24383297470132248
0.07836988763396843
0.0734909194398048
0.057405742541656694
0.0641434751490251
-0.07331899870511575
-0.017344479970882468
-0.058013516051587506
-0.06971189046936013
0.09398506043539306
0.05294692172069811
0.007602545793258416
-0.002831651773941062
0.013496821400760233
-0.03709183582580361
0.08409477492739947
0.01277284959818649
0.10827165956064592
-0.14582749377253065
-0.034199611563560335
0.10313043896957702
0.20550253982141217
0.3554204296003973
0.2691487168887271
0.1105821857319101
0.23350654328615061
0.36763808967573536
0.09383510599137031
0.21299007759686836
0.12327289370531529
-0.010286580345670595
-0.03019277904426375
-0.12504545640313022
-0.07556064074655548
0.03528465406117377
0.13824425578101984
0.017313725944147797
-0.004595127689123461
-0.06408227248554997
0.024811153992322397
0.047443310472453315
-0.10316591491317251
0.11097593171947
0.041321428462831725
0.14986789869052206
-0.03832345677112204
0.04553156066242432
0.04124144632183528
-0.017648983081484083
0.0892404924441613
-0.17071545377140773
-0.08802119929368662
-0.004694922723744623
0.09653233174099933
0.025678804041523142
-0.0056637465322869765
0.11759423331924006
-0.04405774120755036
-0.1633121020247659
-0.21560797843499774
