-0.9721471119300562
-0.21465966530088532
-1.4161812285598026
-1.7361639688999397
-0.4043086014026826
-0.9346216412738758
0.27173335912231933
-0.7323422565991179
1.6374709123801277
3.205324330334792
-3.4172644418693854
-1.073029328147137
-2.5573303597724037
1.6593815702444856
-0.430165319995113
1.4626062485477125
0.559991035928192
0.3887864932977935
-1.0739635435732418
1.6217412171418777
0.6832127685242056
-2.0419802579603346
0.25167380664721634
-0.20800462270953782
0.9856444432168814
0.5367637028345646
1.7501564865520782
1.179240269680128
-0.8260560904468888
3.4558183373072424
-2.880130790542251
-1.6626335618970447
2.2932399163834325
-1.086588539613959
-0.22061250630811705
1.8232983705782113
0.37885540579436255
0.6108862137896895
0.7596379565053937
1.5797203271190876
0.14842730435605886
-2.7036719417287016
3.216159566485807
-0.499486126378985
-0.8123559488555203
1.0571220293551669
-1.8966922453909398
-0.22014723065582847
0.46531096401534144
-1.1573201261686634
2.3504112409696365
-1.39371173130806
-1.4524249450785456
-0.8369007063870868
-2.246543675497545
3.297424333825223
-2.217810309231729
-0.36297576143812804
-1.409540344473511
-1.410264594734553
-0.025729110392232784
-2.378349592606533
2.4418949221106425
1.841663693248249
0.613271360575748
0.30690513820760984
-0.37955988175135835
1.2655179291595322
-0.06918897876469345
0.4642337757179618
-0.351721144300716
0.40738905140653053
2.0992705871087654
-1.0314602793452317
2.658139869755708
0.3920814110093926
0.3392024519239829
1.5206502042515726
-2.2899011489882426
-0.7781621612164099
-0.6950770811807213
-1.0867524712961165
-1.6087105387862186
-2.026354629737326
1.8112924459605415
2.485887329995371
2.450627586699548
-2.288948405954621
0.5918315190663082
1.2511801517852517
-1.2809741882599135
-1.4856200993671744
1.766611524128351
-0.97894951621102
-0.20645141974838355
-1.5120454672437413
-2.287379747845191
-1.3714049877411225
0.05356791970120607
0.8939987926923106
-1.3321104036054359
0.2030388792742631
0.5332440288310016
0.06040570625422726
4.2553486993720835
-1.6265896038789849
1.7551555043426377
-1.9082789454616589
1.3650500276101238
-0.7184294329626656
0.9324130167017793
0.5468564005531841
0.13108365784931308
1.2367295868481798
1.1164999038013743
-1.2340936531507152
-0.7391222598123416
-0.2573542975509646
-0.9080414609366422
-0.8252713361909513
-0.5254704344426947
0.7598275075564831
-0.11525951415719428
1.9706493455257
1.4724912558582035
0.1351402184036948
0.503333658031181
-1.0941947511937244
1.1777296799717174
0.6854457189372081
0.2232388056850463
-0.5269044750400992
-1.3325612334774417
0.3588808434895101
-0.1593382253748149
-0.6900260709717648
-1.4755067670024513
-0.5499525925774598
-0.3262365341156591
0.8349850778187133
-1.950982865796248
0.20677842064818472
0.5171259476330389
1.253402195016573
1.8668109801699708
0.3806560517006694
-1.4371077940504586
1.3972690281909195
2.514339775137364
1.3824627714585511
1.5171558873605977
1.3482693193119828
1.006140141815692
-1.6838788902151314
0.7716923053103703
1.6502167370046668
-1.5690114688279189
-0.08253888624180504
-1.4384767280105322
-1.6697532965706225
-2.2535381156439938
-0.12913259844309596
0.6787401866485857
-3.2211631367546896
-1.0674456277305262
-0.6455107749434464
-0.8841500608920653
-2.0766249893229305
0.44891360880029096
3.7606547550685963
-3.7694121003413983
0.120224805551306
-0.14941766739318674
0.039341505703476026
1.224388586275771
0.08099620468626849
-1.3043442636192188
0.8881646316551843
-2.274208333133996
-1.0467262326125604
2.2016290649730954
3.200372379805282
1.6022404005031212
-3.25269426802372
1.407600190706606
0.09309614754961797
0.5910653568978276
-0.004994375676899594
3.680574966854256
-1.3071689884957856
-0.6973289398979661
-2.970434699986024
-0.9137191251499353
-0.05763835766658536
1.9998033584931885
-0.8289374977892181
-3.4077991433237598
-0.1711736983840973
-2.460081401999934
-0.5200350267439405
-0.5468484160072701
-1.4770699962957794
2.925208561016299
-0.8937778076904975
1.3401891897805882
0.08476521284540733
1.5983485663273038
1.8250017957947715
-0.6108376688939262
-0.18613447444244396
0.769616954749752
-1.2268998691543143
0.05694351517351247
0.867243650126243
-0.16384745582024496
0.8290894881060131
-0.7036967188679127
-0.8184700654944993
-2.3636384964189268
-0.7846032423859646
0.38607837258101274
-2.7697522211295333
2.5426497551355465
0.7553371318367732
0.3984764475830252
3.6286693588381156
0.9190274476339716
-0.046715274323286024
-0.26176843329209815
-1.1593067219047348
-1.104793522600905
-0.4277234080097416
-3.3907922092398257
1.1325912863430174
-1.003870720108097
3.1317988570328215
1.3892945668774472
-0.18544586867731283
0.8570241975875565
-2.1934886845707444
1.374992374493055
-2.0247834627425574
-0.47352159960519696
-0.12458722618395472
-2.205955098700539
-0.41834188719589327
-0.5631034051194324
0.8593943164629201
0.649660264390287
-0.8861383278162123
0.5530707116717096
-2.7967568038944166
-1.5666596338169907
0.8308191887020621
-0.10702878966971374
3.070776652535695
